network unknown {
}
variable Educacion_Madre {
    type discrete [ 12 ] { EPC, EPI, N, NAP, NS, P, PC, PI, SBC, SBI, TC, TI };
}
variable Educacion_Padre {
    type discrete [ 12 ] { EPC, EPI, N, NAP, NS, P, PC, PI, SBC, SBI, TC, TI };
}
variable Personas_hogar {
    type discrete [ 3 ] { Alto, Medio, Poco };
}
variable Puntaje_obtenido {
    type discrete [ 2 ] { Aceptado, Rechazado };
}
variable cole_area_ubicacion {
    type discrete [ 2 ] { RURAL, URBANO };
}
variable cole_naturaleza {
    type discrete [ 2 ] { 0, 1 };
}
variable estu_genero {
    type discrete [ 2 ] { 0, 1 };
}
variable fami_estratovivienda {
    type discrete [ 7 ] { 0, 1, 2, 3, 4, 5, 6 };
}
probability ( Educacion_Madre ) {
    table 0.13181195866670908, 0.04621333624114217, 0.03004773652828829, 0.003673001752257717, 0.03480473003569639, 0.03290102394247386, 0.0941740081267199, 0.11284759295522734, 0.21298980298080697, 0.13532404651888336, 0.11332011189006061, 0.05189265036173445 ;
}
probability ( Educacion_Padre ) {
    table 0.10329725833003935, 0.03453212295790796, 0.046626790309121285, 0.021637808178515235, 0.09206130327385957, 0.025190787092357766, 0.09635486474902734, 0.140421798873527, 0.18745106324332758, 0.13922232773125792, 0.07748591151477154, 0.03571796374628763 ;
}
probability ( Personas_hogar | Educacion_Madre, Educacion_Padre ) {
    ( EPC, EPC ) 0.10306637646396895, 0.2959209870914554, 0.6010126364445755;
    ( EPC, EPI ) 0.06320200720124013, 0.2665970882797297, 0.6702009045190302;
    ( EPC, N ) 0.1038111769779146, 0.25944606382165747, 0.6367427592004279;
    ( EPC, NAP ) 0.054561453849832624, 0.2495915829746533, 0.6958469631755142;
    ( EPC, NS ) 0.07504171839925416, 0.24578983143373928, 0.6791684501670066;
    ( EPC, P ) 0.03911680097897361, 0.24747335215734753, 0.7134098468636789;
    ( EPC, PC ) 0.08626738082137078, 0.2748265110199457, 0.6389061081586834;
    ( EPC, PI ) 0.07218048741551719, 0.262231330248237, 0.6655881823362457;
    ( EPC, SBC ) 0.10700895557702908, 0.27909800023383674, 0.613893044189134;
    ( EPC, SBI ) 0.0858337379711247, 0.27377065044347443, 0.6403956115854009;
    ( EPC, TC ) 0.08367226773756715, 0.2735222032175239, 0.642805529044909;
    ( EPC, TI ) 0.067143529761035, 0.2665353901533338, 0.6663210800856312;
    ( EPI, EPC ) 0.0695699020217269, 0.26240535180416186, 0.6680247461741113;
    ( EPI, EPI ) 0.0763415542784107, 0.29771071049403713, 0.6259477352275522;
    ( EPI, N ) 0.09899051542197472, 0.3077020876242785, 0.5933073969537468;
    ( EPI, NAP ) 0.0843894209990659, 0.19882331618497917, 0.716787262815955;
    ( EPI, NS ) 0.09080210275393516, 0.24773407548178106, 0.6614638217642839;
    ( EPI, P ) 0.05382818050641997, 0.2911438763028558, 0.6550279431907242;
    ( EPI, PC ) 0.09853179949562994, 0.27463294987390746, 0.6268352506304625;
    ( EPI, PI ) 0.099800669789674, 0.2950137321945905, 0.6051855980157356;
    ( EPI, SBC ) 0.0903596124809795, 0.3000005875060954, 0.6096398000129252;
    ( EPI, SBI ) 0.09249360548222581, 0.2928722590543473, 0.6146341354634269;
    ( EPI, TC ) 0.09190551670978205, 0.2588958346199328, 0.6491986486702851;
    ( EPI, TI ) 0.09092648120782582, 0.28512742524019263, 0.6239460935519816;
    ( N, EPC ) 0.19410200628474739, 0.2686902172036327, 0.5372077765116199;
    ( N, EPI ) 0.27032939558722424, 0.3243327707981749, 0.4053378336146009;
    ( N, N ) 0.23652820407530326, 0.28405752655894945, 0.47941426936574727;
    ( N, NAP ) 0.200071187043958, 0.23082399003381382, 0.5691048229222281;
    ( N, NS ) 0.14769426712020253, 0.3020207197552149, 0.5502850131245826;
    ( N, P ) 0.1433283852878113, 0.28583209632195283, 0.5708395183902358;
    ( N, PC ) 0.18496105300202084, 0.3040768273525112, 0.5109621196454681;
    ( N, PI ) 0.235362275772991, 0.2911044292124961, 0.4735332950145129;
    ( N, SBC ) 0.2147323478318494, 0.3026606646691565, 0.48260698749899417;
    ( N, SBI ) 0.2010299725156645, 0.33219768216751644, 0.4667723453168191;
    ( N, TC ) 0.25761559224594244, 0.2879026886808988, 0.4544817190731588;
    ( N, TI ) 0.1887739513770678, 0.24534066605560648, 0.5658853825673257;
    ( NAP, EPC ) 0.10016192458940551, 0.28003701133472125, 0.6198010640758732;
    ( NAP, EPI ) 0.0006080505898090721, 0.15821476346832056, 0.8411771859418703;
    ( NAP, N ) 0.2143840519852415, 0.2619637645244782, 0.5236521834902803;
    ( NAP, NAP ) 0.20704837849322377, 0.2812570632961747, 0.5116945582106015;
    ( NAP, NS ) 0.17815600139456753, 0.3287692941586637, 0.4930747044467687;
    ( NAP, P ) 0.21756607376143103, 0.2609787961008944, 0.5214551301376746;
    ( NAP, PC ) 0.1396912484535528, 0.23263944919584748, 0.6276693023505997;
    ( NAP, PI ) 0.14111120999080418, 0.20518525110498054, 0.6537035389042152;
    ( NAP, SBC ) 0.13691389599317988, 0.23161612471075382, 0.6314699792960662;
    ( NAP, SBI ) 0.10358581628175981, 0.310358581628176, 0.5860556020900642;
    ( NAP, TC ) 0.019073807341451705, 0.16991837981755487, 0.8110078128409933;
    ( NAP, TI ) 0.1115389552047234, 0.5551277114619433, 0.33333333333333337;
    ( NS, EPC ) 0.09136770242154432, 0.26754043144495926, 0.6410918661334966;
    ( NS, EPI ) 0.11388308780643826, 0.21141653026283605, 0.6747003819307257;
    ( NS, N ) 0.14712221239138817, 0.3235327480205994, 0.5293450395880124;
    ( NS, NAP ) 0.1270409756276746, 0.3253990118831157, 0.5475600124892097;
    ( NS, NS ) 0.1261585956082031, 0.2903072318465312, 0.5835341725452655;
    ( NS, P ) 0.04505628786106128, 0.23599303226477392, 0.7189506798741647;
    ( NS, PC ) 0.1546711523090321, 0.3041289383582072, 0.5411999093327607;
    ( NS, PI ) 0.14617050951066798, 0.28461972165346155, 0.5692097688358705;
    ( NS, SBC ) 0.11662283247695421, 0.2807036402682127, 0.602673527254833;
    ( NS, SBI ) 0.11526165236412587, 0.3049662854023795, 0.5797720622334946;
    ( NS, TC ) 0.09274289349243939, 0.29139555024180136, 0.6158615562657592;
    ( NS, TI ) 0.06109088856909055, 0.2683202121956037, 0.6705888992353057;
    ( P, EPC ) 0.03821491908245157, 0.2213464350684898, 0.7404386458490587;
    ( P, EPI ) 0.0484612290384907, 0.20514088640065414, 0.7463978845608551;
    ( P, N ) 0.1283875941410188, 0.35895155073237267, 0.5126608551266085;
    ( P, NAP ) 0.08338499262994035, 0.18455455910512322, 0.7320604482649364;
    ( P, NS ) 0.06938182077663756, 0.18883433010886486, 0.7417838491144977;
    ( P, P ) 0.047768091819268256, 0.22753090477439689, 0.7247010034063349;
    ( P, PC ) 0.10299998298364728, 0.24267020606803139, 0.6543298109483213;
    ( P, PI ) 0.09820959520665615, 0.23928383808266246, 0.6625065667106813;
    ( P, SBC ) 0.05562807846893402, 0.22136138811430986, 0.7230105334167561;
    ( P, SBI ) 0.06653938731414905, 0.22173808167433937, 0.7117225310115116;
    ( P, TC ) 0.03443666989745564, 0.21606897070603806, 0.7494943593965064;
    ( P, TI ) 0.07607562900104213, 0.22809154519739602, 0.6958328258015618;
    ( PC, EPC ) 0.09631661665952279, 0.3160508644092013, 0.5876325189312759;
    ( PC, EPI ) 0.16560148359311538, 0.2980213649669717, 0.5363771514399129;
    ( PC, N ) 0.17555288282748024, 0.2938882207068701, 0.5305588964656497;
    ( PC, NAP ) 0.08204645185785527, 0.23975788374623064, 0.678195664395914;
    ( PC, NS ) 0.13915880913654197, 0.28003617164727046, 0.5808050192161875;
    ( PC, P ) 0.0859596960687149, 0.34284770399735714, 0.5711925999339279;
    ( PC, PC ) 0.1865734882062895, 0.30890351940959604, 0.5045229923841144;
    ( PC, PI ) 0.18089123992001702, 0.31604748881235906, 0.5030612712676238;
    ( PC, SBC ) 0.15106516304535475, 0.32180272940913734, 0.5271321075455079;
    ( PC, SBI ) 0.15753400201622858, 0.336068232700432, 0.5063977652833394;
    ( PC, TC ) 0.10495458810193983, 0.30658627308100794, 0.5884591388170523;
    ( PC, TI ) 0.12952185894714058, 0.29137214743029366, 0.5791059936225658;
    ( PI, EPC ) 0.1550211557562472, 0.2759962020276272, 0.5689826422161257;
    ( PI, EPI ) 0.13444573021264947, 0.2742045864596165, 0.591349683327734;
    ( PI, N ) 0.21490885810100097, 0.27809380175531245, 0.5069973401436866;
    ( PI, NAP ) 0.1225543079128237, 0.27790355502205744, 0.5995421370651188;
    ( PI, NS ) 0.14049490538573509, 0.2963198068661909, 0.563185287748074;
    ( PI, P ) 0.1167919799498747, 0.3000192789666474, 0.583188741083478;
    ( PI, PC ) 0.17736892859299913, 0.32395201575496735, 0.4986790556520334;
    ( PI, PI ) 0.24431653797396038, 0.2813054313257598, 0.47437803070027973;
    ( PI, SBC ) 0.16290912202610808, 0.31704278372308387, 0.5200480942508081;
    ( PI, SBI ) 0.18092067833219205, 0.3260617371977827, 0.49301758447002514;
    ( PI, TC ) 0.11304147322398558, 0.3026840310572502, 0.5842744957187643;
    ( PI, TI ) 0.12859681752428187, 0.30000413308534823, 0.5713990493903699;
    ( SBC, EPC ) 0.09196838814145444, 0.3089325706259792, 0.5990990412325664;
    ( SBC, EPI ) 0.09301179438730213, 0.3089937318409315, 0.5979944737717664;
    ( SBC, N ) 0.13515828059946752, 0.2935163020722237, 0.5713254173283088;
    ( SBC, NAP ) 0.12656717683633134, 0.25812040929214203, 0.6153124138715267;
    ( SBC, NS ) 0.14057279494688565, 0.27621909973734887, 0.5832081053157655;
    ( SBC, P ) 0.05975552926838011, 0.25000640109791633, 0.6902380696337036;
    ( SBC, PC ) 0.14016431788630104, 0.3219032140761125, 0.5379324680375863;
    ( SBC, PI ) 0.1505237539294147, 0.3095820252087454, 0.5398942208618398;
    ( SBC, SBC ) 0.20791136010956948, 0.29072941733025454, 0.501359222560176;
    ( SBC, SBI ) 0.1772494737769631, 0.3092299877897884, 0.5135205384332485;
    ( SBC, TC ) 0.1065502224048173, 0.3087308599231904, 0.5847189176719922;
    ( SBC, TI ) 0.09462950074329254, 0.32194870957415234, 0.5834217896825552;
    ( SBI, EPC ) 0.11491272053498099, 0.2981375947781486, 0.5869496846868704;
    ( SBI, EPI ) 0.12405966879138453, 0.2938957430549114, 0.5820445881537042;
    ( SBI, N ) 0.17721947833857998, 0.30854498473619346, 0.5142355369252265;
    ( SBI, NAP ) 0.09920021076798587, 0.3024407685504056, 0.5983590206816086;
    ( SBI, NS ) 0.13945722469005106, 0.3040281583113033, 0.5565146169986457;
    ( SBI, P ) 0.07819421091645423, 0.312505649870731, 0.6093001392128148;
    ( SBI, PC ) 0.15658229647143942, 0.33401879441811627, 0.5093989091104442;
    ( SBI, PI ) 0.17639024113366095, 0.32370977539080825, 0.49989998347553066;
    ( SBI, SBC ) 0.16946502253598675, 0.3151056908327474, 0.5154292866312657;
    ( SBI, SBI ) 0.20931842291727118, 0.3065012590667795, 0.4841803180159493;
    ( SBI, TC ) 0.105342637881736, 0.32794956947770015, 0.5667077926405638;
    ( SBI, TI ) 0.11232432195400031, 0.3531790404776, 0.5344966375683997;
    ( TC, EPC ) 0.08449663886196301, 0.28536108502106666, 0.6301422761169704;
    ( TC, EPI ) 0.06123367143335966, 0.298349091089051, 0.6404172374775893;
    ( TC, N ) 0.10323127990972514, 0.24912072615252828, 0.6476479939377466;
    ( TC, NAP ) 0.09623407665477512, 0.21478370499405425, 0.6889822183511707;
    ( TC, NS ) 0.09449586560666164, 0.25736117660119123, 0.6481429577921471;
    ( TC, P ) 0.03962415492150796, 0.24753065199954166, 0.7128451930789503;
    ( TC, PC ) 0.07681175652779927, 0.29493189967981026, 0.6282563437923905;
    ( TC, PI ) 0.09394924275471961, 0.2852301472832573, 0.6208206099620232;
    ( TC, SBC ) 0.12919934571032818, 0.2959307188269246, 0.5748699354627471;
    ( TC, SBI ) 0.1031448062353794, 0.28039680262089584, 0.6164583911437248;
    ( TC, TC ) 0.11002859739187555, 0.3068301682061011, 0.5831412344020233;
    ( TC, TI ) 0.08715893893465645, 0.2614594257113392, 0.6513816353540044;
    ( TI, EPC ) 0.0713667949062062, 0.3012895070692333, 0.6273436980245605;
    ( TI, EPI ) 0.0872843003990545, 0.2688732032994328, 0.6438424963015127;
    ( TI, N ) 0.13718177610262514, 0.32571579713019905, 0.5371024267671758;
    ( TI, NAP ) 0.08337587783488194, 0.2892231941277243, 0.6274009280373938;
    ( TI, NS ) 0.10938512497325124, 0.2630240121040053, 0.6275908629227436;
    ( TI, P ) 0.036840403627886396, 0.31618084979665456, 0.646978746575459;
    ( TI, PC ) 0.0828985507246377, 0.32612657699927017, 0.5909748722760922;
    ( TI, PI ) 0.10953306052714974, 0.3297620523842985, 0.5607048870885518;
    ( TI, SBC ) 0.12240703964649978, 0.30054686281206383, 0.5770460975414364;
    ( TI, SBI ) 0.09785269172287478, 0.3124597030520739, 0.5896876052250514;
    ( TI, TC ) 0.09058837429504749, 0.32494629131325437, 0.5844653343916981;
    ( TI, TI ) 0.09994399987586874, 0.2839742314794048, 0.6160817686447264;

}
probability ( Puntaje_obtenido | Educacion_Madre, Educacion_Padre, cole_naturaleza, estu_genero, fami_estratovivienda ) {
    ( EPC, EPC, 0, 0, 0 ) 0.48979617660307834, 0.5102038233969216;
    ( EPC, EPC, 0, 0, 1 ) 0.48993296969071515, 0.5100670303092849;
    ( EPC, EPC, 0, 0, 2 ) 0.5541399848452696, 0.44586001515473045;
    ( EPC, EPC, 0, 0, 3 ) 0.6015746047865017, 0.3984253952134983;
    ( EPC, EPC, 0, 0, 4 ) 0.6379644401431402, 0.36203555985685976;
    ( EPC, EPC, 0, 0, 5 ) 0.6590157469109952, 0.3409842530890049;
    ( EPC, EPC, 0, 0, 6 ) 0.6408438404398575, 0.3591561595601424;
    ( EPC, EPC, 0, 1, 0 ) 0.3437560548403847, 0.6562439451596153;
    ( EPC, EPC, 0, 1, 1 ) 0.5224717535575399, 0.47752824644246;
    ( EPC, EPC, 0, 1, 2 ) 0.5558034169627993, 0.4441965830372006;
    ( EPC, EPC, 0, 1, 3 ) 0.5932771165192816, 0.4067228834807184;
    ( EPC, EPC, 0, 1, 4 ) 0.6632012424480392, 0.33679875755196076;
    ( EPC, EPC, 0, 1, 5 ) 0.6666658925882613, 0.33333410741173886;
    ( EPC, EPC, 0, 1, 6 ) 0.6842088087703562, 0.3157911912296437;
    ( EPC, EPC, 1, 0, 0 ) 0.16667071916434256, 0.8333292808356574;
    ( EPC, EPC, 1, 0, 1 ) 0.39386823493351847, 0.6061317650664815;
    ( EPC, EPC, 1, 0, 2 ) 0.40625021370804315, 0.5937497862919568;
    ( EPC, EPC, 1, 0, 3 ) 0.4277675226529168, 0.5722324773470833;
    ( EPC, EPC, 1, 0, 4 ) 0.3904387883051707, 0.6095612116948294;
    ( EPC, EPC, 1, 0, 5 ) 0.20000437668684806, 0.7999956233131519;
    ( EPC, EPC, 1, 0, 6 ) 0.09093214893641004, 0.9090678510635899;
    ( EPC, EPC, 1, 1, 0 ) 0.11712139459331436, 0.8828786054066856;
    ( EPC, EPC, 1, 1, 1 ) 0.33182891319524727, 0.6681710868047527;
    ( EPC, EPC, 1, 1, 2 ) 0.4038802807691012, 0.5961197192308988;
    ( EPC, EPC, 1, 1, 3 ) 0.431137894998953, 0.5688621050010471;
    ( EPC, EPC, 1, 1, 4 ) 0.34222309180394733, 0.6577769081960527;
    ( EPC, EPC, 1, 1, 5 ) 0.25424245354003694, 0.7457575464599631;
    ( EPC, EPC, 1, 1, 6 ) 0.04350287359420321, 0.9564971264057968;
    ( EPC, EPI, 0, 0, 0 ) 0.6665978018345592, 0.3334021981654409;
    ( EPC, EPI, 0, 0, 1 ) 0.5277768209593751, 0.472223179040625;
    ( EPC, EPI, 0, 0, 2 ) 0.6466151743274263, 0.35338482567257357;
    ( EPC, EPI, 0, 0, 3 ) 0.6528487588363119, 0.3471512411636882;
    ( EPC, EPI, 0, 0, 4 ) 0.6972454623850665, 0.30275453761493354;
    ( EPC, EPI, 0, 0, 5 ) 0.6341422842175941, 0.3658577157824059;
    ( EPC, EPI, 0, 0, 6 ) 0.9230365693138246, 0.0769634306861754;
    ( EPC, EPI, 0, 1, 0 ) 0.5, 0.5;
    ( EPC, EPI, 0, 1, 1 ) 0.7419258062193492, 0.2580741937806507;
    ( EPC, EPI, 0, 1, 2 ) 0.6034471699767167, 0.39655283002328323;
    ( EPC, EPI, 0, 1, 3 ) 0.6571417436100935, 0.3428582563899065;
    ( EPC, EPI, 0, 1, 4 ) 0.7499972319963506, 0.25000276800364934;
    ( EPC, EPI, 0, 1, 5 ) 0.7741825803819291, 0.2258174196180708;
    ( EPC, EPI, 0, 1, 6 ) 0.8570795989939424, 0.14292040100605763;
    ( EPC, EPI, 1, 0, 0 ) 0.0625339057922718, 0.9374660942077282;
    ( EPC, EPI, 1, 0, 1 ) 0.3593777247309662, 0.6406222752690339;
    ( EPC, EPI, 1, 0, 2 ) 0.4873418715005313, 0.5126581284994687;
    ( EPC, EPI, 1, 0, 3 ) 0.5, 0.5;
    ( EPC, EPI, 1, 0, 4 ) 0.45946081815683465, 0.5405391818431654;
    ( EPC, EPI, 1, 0, 5 ) 0.14292040100605763, 0.8570795989939424;
    ( EPC, EPI, 1, 0, 6 ) 0.0006192717364379488, 0.999380728263562;
    ( EPC, EPI, 1, 1, 0 ) 6.199628022318661e-05, 0.9999380037197768;
    ( EPC, EPI, 1, 1, 1 ) 0.34653653769181086, 0.6534634623081891;
    ( EPC, EPI, 1, 1, 2 ) 0.3924059077545164, 0.6075940922454836;
    ( EPC, EPI, 1, 1, 3 ) 0.47761214748293984, 0.5223878525170602;
    ( EPC, EPI, 1, 1, 4 ) 0.6428508162018051, 0.3571491837981948;
    ( EPC, EPI, 1, 1, 5 ) 6.199628022318661e-05, 0.9999380037197768;
    ( EPC, EPI, 1, 1, 6 ) 0.00020659449632261798, 0.9997934055036775;
    ( EPC, N, 0, 0, 0 ) 0.0006192717364379488, 0.999380728263562;
    ( EPC, N, 0, 0, 1 ) 0.5, 0.5;
    ( EPC, N, 0, 0, 2 ) 4.133256179217988e-05, 0.9999586674382078;
    ( EPC, N, 0, 0, 3 ) 0.17649418664021357, 0.8235058133597865;
    ( EPC, N, 0, 0, 4 ) 0.0006192717364379488, 0.999380728263562;
    ( EPC, N, 0, 0, 5 ) 0.5, 0.5;
    ( EPC, N, 0, 0, 6 ) 0.5, 0.5;
    ( EPC, N, 0, 1, 0 ) 0.5, 0.5;
    ( EPC, N, 0, 1, 1 ) 0.2500774809396889, 0.7499225190603112;
    ( EPC, N, 0, 1, 2 ) 0.2500774809396889, 0.7499225190603112;
    ( EPC, N, 0, 1, 3 ) 0.00030982773577890697, 0.9996901722642212;
    ( EPC, N, 0, 1, 4 ) 0.00030982773577890697, 0.9996901722642212;
    ( EPC, N, 0, 1, 5 ) 0.5, 0.5;
    ( EPC, N, 0, 1, 6 ) 0.0006192717364379488, 0.999380728263562;
    ( EPC, N, 1, 0, 0 ) 0.3334021981654409, 0.6665978018345592;
    ( EPC, N, 1, 0, 1 ) 0.29167743068831176, 0.7083225693116881;
    ( EPC, N, 1, 0, 2 ) 0.205137580841065, 0.794862419158935;
    ( EPC, N, 1, 0, 3 ) 0.10528891963504886, 0.8947110803649511;
    ( EPC, N, 1, 0, 4 ) 0.00020659449632261798, 0.9997934055036775;
    ( EPC, N, 1, 0, 5 ) 0.0006192717364379488, 0.999380728263562;
    ( EPC, N, 1, 0, 6 ) 0.00030982773577890697, 0.9996901722642212;
    ( EPC, N, 1, 1, 0 ) 0.0001033185932140348, 0.999896681406786;
    ( EPC, N, 1, 1, 1 ) 0.03848355065482606, 0.9615164493451739;
    ( EPC, N, 1, 1, 2 ) 0.10528891963504886, 0.8947110803649511;
    ( EPC, N, 1, 1, 3 ) 0.08337638719543698, 0.9166236128045631;
    ( EPC, N, 1, 1, 4 ) 0.11116468740528478, 0.8888353125947153;
    ( EPC, N, 1, 1, 5 ) 0.00030982773577890697, 0.9996901722642212;
    ( EPC, N, 1, 1, 6 ) 0.5, 0.5;
    ( EPC, NAP, 0, 0, 0 ) 0.999380728263562, 0.0006192717364379488;
    ( EPC, NAP, 0, 0, 1 ) 0.7499612535259291, 0.25003874647407087;
    ( EPC, NAP, 0, 0, 2 ) 0.44444699593088943, 0.5555530040691106;
    ( EPC, NAP, 0, 0, 3 ) 0.624997578016919, 0.37500242198308104;
    ( EPC, NAP, 0, 0, 4 ) 0.647048096981721, 0.3529519030182789;
    ( EPC, NAP, 0, 0, 5 ) 0.5, 0.5;
    ( EPC, NAP, 0, 0, 6 ) 0.9996901722642212, 0.00030982773577890697;
    ( EPC, NAP, 0, 1, 0 ) 0.999380728263562, 0.0006192717364379488;
    ( EPC, NAP, 0, 1, 1 ) 0.5882288581890327, 0.41177114181096736;
    ( EPC, NAP, 0, 1, 2 ) 0.6333278220973009, 0.36667217790269907;
    ( EPC, NAP, 0, 1, 3 ) 0.6607107268918542, 0.3392892731081459;
    ( EPC, NAP, 0, 1, 4 ) 0.63635595035453, 0.36364404964547004;
    ( EPC, NAP, 0, 1, 5 ) 0.8570795989939424, 0.14292040100605763;
    ( EPC, NAP, 0, 1, 6 ) 0.5, 0.5;
    ( EPC, NAP, 1, 0, 0 ) 0.4285840802012115, 0.5714159197987885;
    ( EPC, NAP, 1, 0, 1 ) 0.33334317465191254, 0.6666568253480875;
    ( EPC, NAP, 1, 0, 2 ) 0.580643548316126, 0.41935645168387414;
    ( EPC, NAP, 1, 0, 3 ) 0.42857323622154847, 0.5714267637784515;
    ( EPC, NAP, 1, 0, 4 ) 0.5, 0.5;
    ( EPC, NAP, 1, 0, 5 ) 0.0006192717364379488, 0.999380728263562;
    ( EPC, NAP, 1, 0, 6 ) 0.5, 0.5;
    ( EPC, NAP, 1, 1, 0 ) 0.11116468740528478, 0.8888353125947153;
    ( EPC, NAP, 1, 1, 1 ) 0.32500542517903086, 0.674994574820969;
    ( EPC, NAP, 1, 1, 2 ) 0.394738559638686, 0.6052614403613141;
    ( EPC, NAP, 1, 1, 3 ) 0.5087717389885523, 0.4912282610114476;
    ( EPC, NAP, 1, 1, 4 ) 0.7142477593963654, 0.2857522406036346;
    ( EPC, NAP, 1, 1, 5 ) 0.5999752045623605, 0.40002479543763947;
    ( EPC, NAP, 1, 1, 6 ) 0.00020659449632261798, 0.9997934055036775;
    ( EPC, NS, 0, 0, 0 ) 0.5714159197987885, 0.4285840802012115;
    ( EPC, NS, 0, 0, 1 ) 0.6111072838375001, 0.3888927161624999;
    ( EPC, NS, 0, 0, 2 ) 0.6249990311955047, 0.37500096880449524;
    ( EPC, NS, 0, 0, 3 ) 0.6626008063499809, 0.33739919365001914;
    ( EPC, NS, 0, 0, 4 ) 0.6390964474388404, 0.3609035525611595;
    ( EPC, NS, 0, 0, 5 ) 0.8181728509184784, 0.18182714908152167;
    ( EPC, NS, 0, 0, 6 ) 0.8181459521608765, 0.18185404783912346;
    ( EPC, NS, 0, 1, 0 ) 0.7499225190603112, 0.2500774809396889;
    ( EPC, NS, 0, 1, 1 ) 0.44444635808124994, 0.55555364191875;
    ( EPC, NS, 0, 1, 2 ) 0.5342462844649952, 0.4657537155350048;
    ( EPC, NS, 0, 1, 3 ) 0.6580078097739203, 0.3419921902260798;
    ( EPC, NS, 0, 1, 4 ) 0.7280676945434925, 0.2719323054565074;
    ( EPC, NS, 0, 1, 5 ) 0.6774122578941895, 0.3225877421058105;
    ( EPC, NS, 0, 1, 6 ) 0.5454494217372681, 0.45455057826273193;
    ( EPC, NS, 1, 0, 0 ) 0.3333448147586834, 0.6666551852413166;
    ( EPC, NS, 1, 0, 1 ) 0.49107152742870175, 0.5089284725712983;
    ( EPC, NS, 1, 0, 2 ) 0.49224809927508584, 0.5077519007249143;
    ( EPC, NS, 1, 0, 3 ) 0.5286342048075484, 0.47136579519245164;
    ( EPC, NS, 1, 0, 4 ) 0.4285735374876734, 0.5714264625123266;
    ( EPC, NS, 1, 0, 5 ) 0.2727528913136596, 0.7272471086863403;
    ( EPC, NS, 1, 0, 6 ) 0.5, 0.5;
    ( EPC, NS, 1, 1, 0 ) 0.0952619955832162, 0.9047380044167838;
    ( EPC, NS, 1, 1, 1 ) 0.3602159857165144, 0.6397840142834855;
    ( EPC, NS, 1, 1, 2 ) 0.44578340254170185, 0.5542165974582982;
    ( EPC, NS, 1, 1, 3 ) 0.41441489248795405, 0.5855851075120461;
    ( EPC, NS, 1, 1, 4 ) 0.4666675852186613, 0.5333324147813387;
    ( EPC, NS, 1, 1, 5 ) 0.2857522406036346, 0.7142477593963654;
    ( EPC, NS, 1, 1, 6 ) 0.00030982773577890697, 0.9996901722642212;
    ( EPC, P, 0, 0, 0 ) 0.7499225190603112, 0.2500774809396889;
    ( EPC, P, 0, 0, 1 ) 0.7499741676827378, 0.25002583231726216;
    ( EPC, P, 0, 0, 2 ) 0.820889583155962, 0.17911041684403792;
    ( EPC, P, 0, 0, 3 ) 0.8435730387830404, 0.15642696121695976;
    ( EPC, P, 0, 0, 4 ) 0.8509289740386379, 0.14907102596136224;
    ( EPC, P, 0, 0, 5 ) 0.8139489613764105, 0.18605103862358943;
    ( EPC, P, 0, 0, 6 ) 0.8420940993728014, 0.15790590062719864;
    ( EPC, P, 0, 1, 0 ) 0.9998450381206223, 0.0001549618793776731;
    ( EPC, P, 0, 1, 1 ) 0.8749418802888937, 0.1250581197111063;
    ( EPC, P, 0, 1, 2 ) 0.7808171474582203, 0.2191828525417798;
    ( EPC, P, 0, 1, 3 ) 0.8066641314142574, 0.1933358685857425;
    ( EPC, P, 0, 1, 4 ) 0.8641947430223106, 0.1358052569776895;
    ( EPC, P, 0, 1, 5 ) 0.9014014398641874, 0.0985985601358125;
    ( EPC, P, 0, 1, 6 ) 0.8888754934312504, 0.11112450656874971;
    ( EPC, P, 1, 0, 0 ) 0.0001549618793776731, 0.9998450381206223;
    ( EPC, P, 1, 0, 1 ) 0.44000297604285504, 0.559997023957145;
    ( EPC, P, 1, 0, 2 ) 0.7419306449483778, 0.2580693550516223;
    ( EPC, P, 1, 0, 3 ) 0.6279051324126117, 0.3720948675873883;
    ( EPC, P, 1, 0, 4 ) 0.6551657786937819, 0.34483422130621805;
    ( EPC, P, 1, 0, 5 ) 0.1667355457288094, 0.8332644542711907;
    ( EPC, P, 1, 0, 6 ) 0.5, 0.5;
    ( EPC, P, 1, 1, 0 ) 0.00030982773577890697, 0.9996901722642212;
    ( EPC, P, 1, 1, 1 ) 0.48275935792291313, 0.5172406420770869;
    ( EPC, P, 1, 1, 2 ) 0.5925911750567213, 0.40740882494327874;
    ( EPC, P, 1, 1, 3 ) 0.6419731350869726, 0.35802686491302743;
    ( EPC, P, 1, 1, 4 ) 0.761889296975566, 0.238110703024434;
    ( EPC, P, 1, 1, 5 ) 0.7499225190603112, 0.2500774809396889;
    ( EPC, P, 1, 1, 6 ) 0.9996901722642212, 0.00030982773577890697;
    ( EPC, PC, 0, 0, 0 ) 0.3334021981654409, 0.6665978018345592;
    ( EPC, PC, 0, 0, 1 ) 0.2000371977681339, 0.7999628022318661;
    ( EPC, PC, 0, 0, 2 ) 0.3400039681555518, 0.6599960318444483;
    ( EPC, PC, 0, 0, 3 ) 0.38889144043392604, 0.611108559566074;
    ( EPC, PC, 0, 0, 4 ) 0.31251453105383076, 0.6874854689461692;
    ( EPC, PC, 0, 0, 5 ) 0.3334021981654409, 0.6665978018345592;
    ( EPC, PC, 0, 0, 6 ) 0.0006192717364379488, 0.999380728263562;
    ( EPC, PC, 0, 1, 0 ) 0.5, 0.5;
    ( EPC, PC, 0, 1, 1 ) 0.25001550003100004, 0.749984499969;
    ( EPC, PC, 0, 1, 2 ) 0.40425784527383923, 0.5957421547261608;
    ( EPC, PC, 0, 1, 3 ) 0.5531900859589782, 0.4468099140410218;
    ( EPC, PC, 0, 1, 4 ) 0.7777395089962251, 0.22226049100377482;
    ( EPC, PC, 0, 1, 5 ) 0.20007438631291846, 0.7999256136870816;
    ( EPC, PC, 0, 1, 6 ) 0.999380728263562, 0.0006192717364379488;
    ( EPC, PC, 1, 0, 0 ) 0.28573326483977823, 0.7142667351602218;
    ( EPC, PC, 1, 0, 1 ) 0.4105274837160125, 0.5894725162839876;
    ( EPC, PC, 1, 0, 2 ) 0.31538637642727, 0.6846136235727299;
    ( EPC, PC, 1, 0, 3 ) 0.34722485351814797, 0.6527751464818521;
    ( EPC, PC, 1, 0, 4 ) 0.0769634306861754, 0.9230365693138246;
    ( EPC, PC, 1, 0, 5 ) 0.2000371977681339, 0.7999628022318661;
    ( EPC, PC, 1, 0, 6 ) 0.00030982773577890697, 0.9996901722642212;
    ( EPC, PC, 1, 1, 0 ) 5.636089005117569e-05, 0.9999436391099489;
    ( EPC, PC, 1, 1, 1 ) 0.2500025001350073, 0.7499974998649926;
    ( EPC, PC, 1, 1, 2 ) 0.3087264241235874, 0.6912735758764126;
    ( EPC, PC, 1, 1, 3 ) 0.30682090406148455, 0.6931790959385155;
    ( EPC, PC, 1, 1, 4 ) 0.2727528913136596, 0.7272471086863403;
    ( EPC, PC, 1, 1, 5 ) 7.74929481417191e-05, 0.9999225070518583;
    ( EPC, PC, 1, 1, 6 ) 0.00030982773577890697, 0.9996901722642212;
    ( EPC, PI, 0, 0, 0 ) 0.2500774809396889, 0.7499225190603112;
    ( EPC, PI, 0, 0, 1 ) 0.235313425432902, 0.764686574567098;
    ( EPC, PI, 0, 0, 2 ) 0.3518552539119013, 0.6481447460880987;
    ( EPC, PI, 0, 0, 3 ) 0.5, 0.5;
    ( EPC, PI, 0, 0, 4 ) 0.5294096193963442, 0.47059038060365577;
    ( EPC, PI, 0, 0, 5 ) 0.5, 0.5;
    ( EPC, PI, 0, 0, 6 ) 0.5, 0.5;
    ( EPC, PI, 0, 1, 0 ) 0.2500774809396889, 0.7499225190603112;
    ( EPC, PI, 0, 1, 1 ) 0.32143647974774353, 0.6785635202522564;
    ( EPC, PI, 0, 1, 2 ) 0.3809547242157145, 0.6190452757842856;
    ( EPC, PI, 0, 1, 3 ) 0.5, 0.5;
    ( EPC, PI, 0, 1, 4 ) 0.6363482652118042, 0.3636517347881958;
    ( EPC, PI, 0, 1, 5 ) 0.33336777286440467, 0.6666322271355953;
    ( EPC, PI, 0, 1, 6 ) 0.5, 0.5;
    ( EPC, PI, 1, 0, 0 ) 0.15002170004340004, 0.8499782999565999;
    ( EPC, PI, 1, 0, 1 ) 0.28571665828884224, 0.7142833417111577;
    ( EPC, PI, 1, 0, 2 ) 0.34228319182120365, 0.6577168081787963;
    ( EPC, PI, 1, 0, 3 ) 0.28000363750599366, 0.7199963624940064;
    ( EPC, PI, 1, 0, 4 ) 0.05266077558638873, 0.9473392244136112;
    ( EPC, PI, 1, 0, 5 ) 0.2500774809396889, 0.7499225190603112;
    ( EPC, PI, 1, 0, 6 ) 0.999380728263562, 0.0006192717364379488;
    ( EPC, PI, 1, 1, 0 ) 0.06668457818377216, 0.9333154218162278;
    ( EPC, PI, 1, 1, 1 ) 0.16326743660767049, 0.8367325633923296;
    ( EPC, PI, 1, 1, 2 ) 0.2740398086950508, 0.7259601913049493;
    ( EPC, PI, 1, 1, 3 ) 0.2777808396599474, 0.7222191603400526;
    ( EPC, PI, 1, 1, 4 ) 0.238110703024434, 0.761889296975566;
    ( EPC, PI, 1, 1, 5 ) 7.74929481417191e-05, 0.9999225070518583;
    ( EPC, PI, 1, 1, 6 ) 0.00030982773577890697, 0.9996901722642212;
    ( EPC, SBC, 0, 0, 0 ) 0.5833247225609126, 0.4166752774390874;
    ( EPC, SBC, 0, 0, 1 ) 0.44578394255679626, 0.5542160574432037;
    ( EPC, SBC, 0, 0, 2 ) 0.49146761290388113, 0.5085323870961188;
    ( EPC, SBC, 0, 0, 3 ) 0.513586910736827, 0.48641308926317295;
    ( EPC, SBC, 0, 0, 4 ) 0.5611106900994124, 0.43888930990058767;
    ( EPC, SBC, 0, 0, 5 ) 0.6249972320269978, 0.37500276797300236;
    ( EPC, SBC, 0, 0, 6 ) 0.6428508162018051, 0.3571491837981948;
    ( EPC, SBC, 0, 1, 0 ) 0.41177114181096736, 0.5882288581890327;
    ( EPC, SBC, 0, 1, 1 ) 0.45762756394223386, 0.5423724360577661;
    ( EPC, SBC, 0, 1, 2 ) 0.5034246429903113, 0.4965753570096887;
    ( EPC, SBC, 0, 1, 3 ) 0.5496892496316362, 0.45031075036836377;
    ( EPC, SBC, 0, 1, 4 ) 0.6322570063923579, 0.367742993607642;
    ( EPC, SBC, 0, 1, 5 ) 0.680846292260526, 0.31915370773947416;
    ( EPC, SBC, 0, 1, 6 ) 0.7368266482189707, 0.26317335178102935;
    ( EPC, SBC, 1, 0, 0 ) 0.10000708604226824, 0.8999929139577317;
    ( EPC, SBC, 1, 0, 1 ) 0.35714336329590674, 0.6428566367040933;
    ( EPC, SBC, 1, 0, 2 ) 0.3714862637896233, 0.6285137362103767;
    ( EPC, SBC, 1, 0, 3 ) 0.42892790058614444, 0.5710720994138556;
    ( EPC, SBC, 1, 0, 4 ) 0.2740761493592982, 0.7259238506407018;
    ( EPC, SBC, 1, 0, 5 ) 0.200012400281073, 0.799987599718927;
    ( EPC, SBC, 1, 0, 6 ) 0.25002583231726216, 0.7499741676827378;
    ( EPC, SBC, 1, 1, 0 ) 0.08065354875614528, 0.9193464512438547;
    ( EPC, SBC, 1, 1, 1 ) 0.3216788371384485, 0.6783211628615514;
    ( EPC, SBC, 1, 1, 2 ) 0.37190115465441076, 0.6280988453455892;
    ( EPC, SBC, 1, 1, 3 ) 0.3708443993943611, 0.6291556006056389;
    ( EPC, SBC, 1, 1, 4 ) 0.412845028248459, 0.587154971751541;
    ( EPC, SBC, 1, 1, 5 ) 0.2258174196180708, 0.7741825803819291;
    ( EPC, SBC, 1, 1, 6 ) 0.05885570905483668, 0.9411442909451633;
    ( EPC, SBI, 0, 0, 0 ) 0.22226049100377482, 0.7777395089962251;
    ( EPC, SBI, 0, 0, 1 ) 0.28205821192600455, 0.7179417880739953;
    ( EPC, SBI, 0, 0, 2 ) 0.5131577873901274, 0.4868422126098726;
    ( EPC, SBI, 0, 0, 3 ) 0.5105262470874642, 0.4894737529125358;
    ( EPC, SBI, 0, 0, 4 ) 0.5760859309500767, 0.4239140690499233;
    ( EPC, SBI, 0, 0, 5 ) 0.5806419354064497, 0.4193580645935502;
    ( EPC, SBI, 0, 0, 6 ) 0.7999628022318661, 0.2000371977681339;
    ( EPC, SBI, 0, 1, 0 ) 0.33336777286440467, 0.6666322271355953;
    ( EPC, SBI, 0, 1, 1 ) 0.2500070457069099, 0.7499929542930902;
    ( EPC, SBI, 0, 1, 2 ) 0.4609932508614518, 0.5390067491385482;
    ( EPC, SBI, 0, 1, 3 ) 0.5028248389659632, 0.4971751610340368;
    ( EPC, SBI, 0, 1, 4 ) 0.5857127672766568, 0.4142872327233432;
    ( EPC, SBI, 0, 1, 5 ) 0.5, 0.5;
    ( EPC, SBI, 0, 1, 6 ) 0.6665978018345592, 0.3334021981654409;
    ( EPC, SBI, 1, 0, 0 ) 0.11364725245613344, 0.8863527475438666;
    ( EPC, SBI, 1, 0, 1 ) 0.3350796047873245, 0.6649203952126754;
    ( EPC, SBI, 1, 0, 2 ) 0.3448281894211923, 0.6551718105788077;
    ( EPC, SBI, 1, 0, 3 ) 0.39090970582101253, 0.6090902941789875;
    ( EPC, SBI, 1, 0, 4 ) 0.415386229658317, 0.584613770341683;
    ( EPC, SBI, 1, 0, 5 ) 0.23079491043665706, 0.769205089563343;
    ( EPC, SBI, 1, 0, 6 ) 0.20007438631291846, 0.7999256136870816;
    ( EPC, SBI, 1, 1, 0 ) 0.06251695355307721, 0.9374830464469227;
    ( EPC, SBI, 1, 1, 1 ) 0.2931045541671255, 0.7068954458328746;
    ( EPC, SBI, 1, 1, 2 ) 0.3645490567555843, 0.6354509432444158;
    ( EPC, SBI, 1, 1, 3 ) 0.3866672912957932, 0.6133327087042069;
    ( EPC, SBI, 1, 1, 4 ) 0.28125423847039177, 0.7187457615296082;
    ( EPC, SBI, 1, 1, 5 ) 5.636089005117569e-05, 0.9999436391099489;
    ( EPC, SBI, 1, 1, 6 ) 0.0001239771881973717, 0.9998760228118027;
    ( EPC, TC, 0, 0, 0 ) 0.5555479017992451, 0.444452098200755;
    ( EPC, TC, 0, 0, 1 ) 0.5306114701907649, 0.46938852980923507;
    ( EPC, TC, 0, 0, 2 ) 0.6216208063813387, 0.3783791936186614;
    ( EPC, TC, 0, 0, 3 ) 0.5918362698601501, 0.4081637301398499;
    ( EPC, TC, 0, 0, 4 ) 0.7333301183570552, 0.2666698816429447;
    ( EPC, TC, 0, 0, 5 ) 0.6451554837316096, 0.3548445162683904;
    ( EPC, TC, 0, 0, 6 ) 0.6666322271355953, 0.33336777286440467;
    ( EPC, TC, 0, 1, 0 ) 0.6666322271355953, 0.33336777286440467;
    ( EPC, TC, 0, 1, 1 ) 0.5490184159465465, 0.4509815840534534;
    ( EPC, TC, 0, 1, 2 ) 0.5970867941974267, 0.40291320580257334;
    ( EPC, TC, 0, 1, 3 ) 0.6103890177872594, 0.3896109822127407;
    ( EPC, TC, 0, 1, 4 ) 0.6464628118635278, 0.3535371881364721;
    ( EPC, TC, 0, 1, 5 ) 0.8666363561213524, 0.1333636438786476;
    ( EPC, TC, 0, 1, 6 ) 0.3334021981654409, 0.6665978018345592;
    ( EPC, TC, 1, 0, 0 ) 0.157917063683709, 0.8420829363162909;
    ( EPC, TC, 1, 0, 1 ) 0.42515025640492526, 0.5748497435950748;
    ( EPC, TC, 1, 0, 2 ) 0.4650351166406656, 0.5349648833593345;
    ( EPC, TC, 1, 0, 3 ) 0.4921875378440356, 0.5078124621559644;
    ( EPC, TC, 1, 0, 4 ) 0.4843753027478852, 0.5156246972521149;
    ( EPC, TC, 1, 0, 5 ) 0.7777395089962251, 0.22226049100377482;
    ( EPC, TC, 1, 0, 6 ) 8.856140848064047e-05, 0.9999114385915194;
    ( EPC, TC, 1, 1, 0 ) 0.1666896295173668, 0.8333103704826332;
    ( EPC, TC, 1, 1, 1 ) 0.33333421657606366, 0.6666657834239363;
    ( EPC, TC, 1, 1, 2 ) 0.4419265496195113, 0.5580734503804887;
    ( EPC, TC, 1, 1, 3 ) 0.48818903404147707, 0.5118109659585229;
    ( EPC, TC, 1, 1, 4 ) 0.30882701573048466, 0.6911729842695155;
    ( EPC, TC, 1, 1, 5 ) 0.3636517347881958, 0.6363482652118042;
    ( EPC, TC, 1, 1, 6 ) 0.0001549618793776731, 0.9998450381206223;
    ( EPC, TI, 0, 0, 0 ) 0.0006192717364379488, 0.999380728263562;
    ( EPC, TI, 0, 0, 1 ) 0.5624951563153897, 0.43750484368461023;
    ( EPC, TI, 0, 0, 2 ) 0.40425784527383923, 0.5957421547261608;
    ( EPC, TI, 0, 0, 3 ) 0.6511606110330865, 0.34883938896691347;
    ( EPC, TI, 0, 0, 4 ) 0.7631493072098472, 0.23685069279015275;
    ( EPC, TI, 0, 0, 5 ) 0.2500774809396889, 0.7499225190603112;
    ( EPC, TI, 0, 0, 6 ) 0.7499225190603112, 0.2500774809396889;
    ( EPC, TI, 0, 1, 0 ) 0.00020659449632261798, 0.9997934055036775;
    ( EPC, TI, 0, 1, 1 ) 0.41177114181096736, 0.5882288581890327;
    ( EPC, TI, 0, 1, 2 ) 0.4545463085785576, 0.5454536914214424;
    ( EPC, TI, 0, 1, 3 ) 0.6631557649884479, 0.33684423501155214;
    ( EPC, TI, 0, 1, 4 ) 0.4516148387561301, 0.5483851612438698;
    ( EPC, TI, 0, 1, 5 ) 0.7142477593963654, 0.2857522406036346;
    ( EPC, TI, 0, 1, 6 ) 0.00030982773577890697, 0.9996901722642212;
    ( EPC, TI, 1, 0, 0 ) 0.1250581197111063, 0.8749418802888937;
    ( EPC, TI, 1, 0, 1 ) 0.34146820956102514, 0.6585317904389748;
    ( EPC, TI, 1, 0, 2 ) 0.36036192038109105, 0.6396380796189088;
    ( EPC, TI, 1, 0, 3 ) 0.3888904198299737, 0.6111095801700264;
    ( EPC, TI, 1, 0, 4 ) 0.41667097227532474, 0.5833290277246753;
    ( EPC, TI, 1, 0, 5 ) 0.5, 0.5;
    ( EPC, TI, 1, 0, 6 ) 0.2500774809396889, 0.7499225190603112;
    ( EPC, TI, 1, 1, 0 ) 0.11116468740528478, 0.8888353125947153;
    ( EPC, TI, 1, 1, 1 ) 0.2963009741288643, 0.7036990258711358;
    ( EPC, TI, 1, 1, 2 ) 0.45454592038567093, 0.545454079614329;
    ( EPC, TI, 1, 1, 3 ) 0.4215695809798453, 0.5784304190201547;
    ( EPC, TI, 1, 1, 4 ) 0.2000371977681339, 0.7999628022318661;
    ( EPC, TI, 1, 1, 5 ) 0.00030982773577890697, 0.9996901722642212;
    ( EPC, TI, 1, 1, 6 ) 0.00020659449632261798, 0.9997934055036775;
    ( EPI, EPC, 0, 0, 0 ) 0.5, 0.5;
    ( EPI, EPC, 0, 0, 1 ) 0.6666604038749145, 0.33333959612508546;
    ( EPI, EPC, 0, 0, 2 ) 0.5794383316837765, 0.42056166831622355;
    ( EPI, EPC, 0, 0, 3 ) 0.5795448940796492, 0.42045510592035085;
    ( EPI, EPC, 0, 0, 4 ) 0.6595723629532496, 0.3404276370467504;
    ( EPI, EPC, 0, 0, 5 ) 0.8285597874224978, 0.1714402125775022;
    ( EPI, EPC, 0, 0, 6 ) 0.8332988902436504, 0.16670110975634958;
    ( EPI, EPC, 0, 1, 0 ) 0.37501937323703544, 0.6249806267629646;
    ( EPI, EPC, 0, 1, 1 ) 0.6128987095690297, 0.3871012904309703;
    ( EPI, EPC, 0, 1, 2 ) 0.6388872941549301, 0.3611127058450699;
    ( EPI, EPC, 0, 1, 3 ) 0.6235946445664698, 0.37640535543353015;
    ( EPI, EPC, 0, 1, 4 ) 0.6792431860775813, 0.32075681392241867;
    ( EPI, EPC, 0, 1, 5 ) 0.7837742729021576, 0.21622572709784232;
    ( EPI, EPC, 0, 1, 6 ) 0.6666494451218252, 0.3333505548781748;
    ( EPI, EPC, 1, 0, 0 ) 0.1666896295173668, 0.8333103704826332;
    ( EPI, EPC, 1, 0, 1 ) 0.39285872456767634, 0.6071412754323237;
    ( EPI, EPC, 1, 0, 2 ) 0.4860336163096325, 0.5139663836903675;
    ( EPI, EPC, 1, 0, 3 ) 0.48484859872084896, 0.515151401279151;
    ( EPI, EPC, 1, 0, 4 ) 0.45000155005115167, 0.5499984499488483;
    ( EPI, EPC, 1, 0, 5 ) 0.30002479851208924, 0.6999752014879107;
    ( EPI, EPC, 1, 0, 6 ) 0.00030982773577890697, 0.9996901722642212;
    ( EPI, EPC, 1, 1, 0 ) 0.11767494784752512, 0.8823250521524749;
    ( EPI, EPC, 1, 1, 1 ) 0.37391440309692997, 0.62608559690307;
    ( EPI, EPC, 1, 1, 2 ) 0.41860523799979527, 0.5813947620002048;
    ( EPI, EPC, 1, 1, 3 ) 0.4765102626116686, 0.5234897373883314;
    ( EPI, EPC, 1, 1, 4 ) 0.41666881952661194, 0.5833311804733881;
    ( EPI, EPC, 1, 1, 5 ) 0.23079491043665706, 0.769205089563343;
    ( EPI, EPC, 1, 1, 6 ) 0.5, 0.5;
    ( EPI, EPI, 0, 0, 0 ) 0.5, 0.5;
    ( EPI, EPI, 0, 0, 1 ) 0.42105778392700977, 0.5789422160729902;
    ( EPI, EPI, 0, 0, 2 ) 0.5769218539845661, 0.423078146015434;
    ( EPI, EPI, 0, 0, 3 ) 0.6406236376213182, 0.35937636237868165;
    ( EPI, EPI, 0, 0, 4 ) 0.6144561212689856, 0.38554387873101437;
    ( EPI, EPI, 0, 0, 5 ) 0.63635595035453, 0.36364404964547004;
    ( EPI, EPI, 0, 0, 6 ) 0.4285840802012115, 0.5714159197987885;
    ( EPI, EPI, 0, 1, 0 ) 0.20007438631291846, 0.7999256136870816;
    ( EPI, EPI, 0, 1, 1 ) 0.5555517284137722, 0.4444482715862278;
    ( EPI, EPI, 0, 1, 2 ) 0.5555545987206735, 0.4444454012793265;
    ( EPI, EPI, 0, 1, 3 ) 0.6357130836071817, 0.3642869163928182;
    ( EPI, EPI, 0, 1, 4 ) 0.6229483202348378, 0.37705167976516224;
    ( EPI, EPI, 0, 1, 5 ) 0.8666363561213524, 0.1333636438786476;
    ( EPI, EPI, 0, 1, 6 ) 0.7142477593963654, 0.2857522406036346;
    ( EPI, EPI, 1, 0, 0 ) 0.21054520773236918, 0.7894547922676308;
    ( EPI, EPI, 1, 0, 1 ) 0.382354371469768, 0.6176456285302321;
    ( EPI, EPI, 1, 0, 2 ) 0.4223608464516288, 0.5776391535483711;
    ( EPI, EPI, 1, 0, 3 ) 0.46405257893892216, 0.5359474210610778;
    ( EPI, EPI, 1, 0, 4 ) 0.3513563332417269, 0.648643666758273;
    ( EPI, EPI, 1, 0, 5 ) 7.74929481417191e-05, 0.9999225070518583;
    ( EPI, EPI, 1, 0, 6 ) 0.6665978018345592, 0.3334021981654409;
    ( EPI, EPI, 1, 1, 0 ) 0.05002790005580011, 0.9499720999441998;
    ( EPI, EPI, 1, 1, 1 ) 0.29213772770465907, 0.707862272295341;
    ( EPI, EPI, 1, 1, 2 ) 0.40268537367691287, 0.5973146263230871;
    ( EPI, EPI, 1, 1, 3 ) 0.38059811990901227, 0.6194018800909876;
    ( EPI, EPI, 1, 1, 4 ) 0.43750242193615385, 0.5624975780638461;
    ( EPI, EPI, 1, 1, 5 ) 0.2857522406036346, 0.7142477593963654;
    ( EPI, EPI, 1, 1, 6 ) 0.00020659449632261798, 0.9997934055036775;
    ( EPI, N, 0, 0, 0 ) 0.5, 0.5;
    ( EPI, N, 0, 0, 1 ) 0.5, 0.5;
    ( EPI, N, 0, 0, 2 ) 0.0006192717364379488, 0.999380728263562;
    ( EPI, N, 0, 0, 3 ) 0.0006192717364379488, 0.999380728263562;
    ( EPI, N, 0, 0, 4 ) 0.6665978018345592, 0.3334021981654409;
    ( EPI, N, 0, 0, 5 ) 0.5, 0.5;
    ( EPI, N, 0, 0, 6 ) 0.5, 0.5;
    ( EPI, N, 0, 1, 0 ) 0.00020659449632261798, 0.9997934055036775;
    ( EPI, N, 0, 1, 1 ) 0.00030982773577890697, 0.9996901722642212;
    ( EPI, N, 0, 1, 2 ) 0.3334021981654409, 0.6665978018345592;
    ( EPI, N, 0, 1, 3 ) 0.0006192717364379488, 0.999380728263562;
    ( EPI, N, 0, 1, 4 ) 0.0006192717364379488, 0.999380728263562;
    ( EPI, N, 0, 1, 5 ) 0.0006192717364379488, 0.999380728263562;
    ( EPI, N, 0, 1, 6 ) 0.0006192717364379488, 0.999380728263562;
    ( EPI, N, 1, 0, 0 ) 0.0001549618793776731, 0.9998450381206223;
    ( EPI, N, 1, 0, 1 ) 0.09095520436458733, 0.9090447956354127;
    ( EPI, N, 1, 0, 2 ) 0.0001549618793776731, 0.9998450381206223;
    ( EPI, N, 1, 0, 3 ) 0.1667355457288094, 0.8332644542711907;
    ( EPI, N, 1, 0, 4 ) 0.20007438631291846, 0.7999256136870816;
    ( EPI, N, 1, 0, 5 ) 0.2500774809396889, 0.7499225190603112;
    ( EPI, N, 1, 0, 6 ) 0.00030982773577890697, 0.9996901722642212;
    ( EPI, N, 1, 1, 0 ) 0.20007438631291846, 0.7999256136870816;
    ( EPI, N, 1, 1, 1 ) 7.74929481417191e-05, 0.9999225070518583;
    ( EPI, N, 1, 1, 2 ) 0.2727528913136596, 0.7272471086863403;
    ( EPI, N, 1, 1, 3 ) 0.2500774809396889, 0.7499225190603112;
    ( EPI, N, 1, 1, 4 ) 0.00020659449632261798, 0.9997934055036775;
    ( EPI, N, 1, 1, 5 ) 0.20007438631291846, 0.7999256136870816;
    ( EPI, N, 1, 1, 6 ) 0.5, 0.5;
    ( EPI, NAP, 0, 0, 0 ) 0.5, 0.5;
    ( EPI, NAP, 0, 0, 1 ) 0.999380728263562, 0.0006192717364379488;
    ( EPI, NAP, 0, 0, 2 ) 0.5, 0.5;
    ( EPI, NAP, 0, 0, 3 ) 0.4285840802012115, 0.5714159197987885;
    ( EPI, NAP, 0, 0, 4 ) 0.5, 0.5;
    ( EPI, NAP, 0, 0, 5 ) 0.5, 0.5;
    ( EPI, NAP, 0, 0, 6 ) 0.5, 0.5;
    ( EPI, NAP, 0, 1, 0 ) 0.999380728263562, 0.0006192717364379488;
    ( EPI, NAP, 0, 1, 1 ) 0.2500774809396889, 0.7499225190603112;
    ( EPI, NAP, 0, 1, 2 ) 0.5999752045623605, 0.40002479543763947;
    ( EPI, NAP, 0, 1, 3 ) 0.4615421300623796, 0.5384578699376205;
    ( EPI, NAP, 0, 1, 4 ) 0.9996901722642212, 0.00030982773577890697;
    ( EPI, NAP, 0, 1, 5 ) 0.999380728263562, 0.0006192717364379488;
    ( EPI, NAP, 0, 1, 6 ) 0.5, 0.5;
    ( EPI, NAP, 1, 0, 0 ) 0.00030982773577890697, 0.9996901722642212;
    ( EPI, NAP, 1, 0, 1 ) 0.35715550989318545, 0.6428444901068145;
    ( EPI, NAP, 1, 0, 2 ) 0.5294096193963442, 0.47059038060365577;
    ( EPI, NAP, 1, 0, 3 ) 0.2727528913136596, 0.7272471086863403;
    ( EPI, NAP, 1, 0, 4 ) 0.33336777286440467, 0.6666322271355953;
    ( EPI, NAP, 1, 0, 5 ) 0.00030982773577890697, 0.9996901722642212;
    ( EPI, NAP, 1, 0, 6 ) 0.5, 0.5;
    ( EPI, NAP, 1, 1, 0 ) 0.5, 0.5;
    ( EPI, NAP, 1, 1, 1 ) 0.45455057826273193, 0.5454494217372681;
    ( EPI, NAP, 1, 1, 2 ) 0.41667097227532474, 0.5833290277246753;
    ( EPI, NAP, 1, 1, 3 ) 0.36364404964547004, 0.63635595035453;
    ( EPI, NAP, 1, 1, 4 ) 0.2500774809396889, 0.7499225190603112;
    ( EPI, NAP, 1, 1, 5 ) 0.5, 0.5;
    ( EPI, NAP, 1, 1, 6 ) 0.0006192717364379488, 0.999380728263562;
    ( EPI, NS, 0, 0, 0 ) 0.5, 0.5;
    ( EPI, NS, 0, 0, 1 ) 0.6666528891460692, 0.3333471108539307;
    ( EPI, NS, 0, 0, 2 ) 0.5, 0.5;
    ( EPI, NS, 0, 0, 3 ) 0.5483861289896755, 0.4516138710103245;
    ( EPI, NS, 0, 0, 4 ) 0.6153736098128613, 0.38462639018713873;
    ( EPI, NS, 0, 0, 5 ) 0.9996901722642212, 0.00030982773577890697;
    ( EPI, NS, 0, 0, 6 ) 0.5, 0.5;
    ( EPI, NS, 0, 1, 0 ) 0.6665978018345592, 0.3334021981654409;
    ( EPI, NS, 0, 1, 1 ) 0.444452098200755, 0.5555479017992451;
    ( EPI, NS, 0, 1, 2 ) 0.47500077502557586, 0.5249992249744242;
    ( EPI, NS, 0, 1, 3 ) 0.5624987890084595, 0.43750121099154055;
    ( EPI, NS, 0, 1, 4 ) 0.749980625261559, 0.25001937473844105;
    ( EPI, NS, 0, 1, 5 ) 0.9999311161932053, 6.88838067946987e-05;
    ( EPI, NS, 0, 1, 6 ) 0.9996901722642212, 0.00030982773577890697;
    ( EPI, NS, 1, 0, 0 ) 0.3333562946022649, 0.6666437053977351;
    ( EPI, NS, 1, 0, 1 ) 0.46153937873505385, 0.5384606212649462;
    ( EPI, NS, 1, 0, 2 ) 0.4810129562714067, 0.5189870437285933;
    ( EPI, NS, 1, 0, 3 ) 0.4415593827403058, 0.5584406172596942;
    ( EPI, NS, 1, 0, 4 ) 0.6428444901068145, 0.35715550989318545;
    ( EPI, NS, 1, 0, 5 ) 0.40002479543763947, 0.5999752045623605;
    ( EPI, NS, 1, 0, 6 ) 0.5, 0.5;
    ( EPI, NS, 1, 1, 0 ) 0.0001549618793776731, 0.9998450381206223;
    ( EPI, NS, 1, 1, 1 ) 0.3552655195031932, 0.6447344804968068;
    ( EPI, NS, 1, 1, 2 ) 0.4166677431105439, 0.5833322568894561;
    ( EPI, NS, 1, 1, 3 ) 0.47222270063966326, 0.5277772993603368;
    ( EPI, NS, 1, 1, 4 ) 0.25001937473844105, 0.749980625261559;
    ( EPI, NS, 1, 1, 5 ) 0.999380728263562, 0.0006192717364379488;
    ( EPI, NS, 1, 1, 6 ) 0.0006192717364379488, 0.999380728263562;
    ( EPI, P, 0, 0, 0 ) 0.5, 0.5;
    ( EPI, P, 0, 0, 1 ) 0.6665978018345592, 0.3334021981654409;
    ( EPI, P, 0, 0, 2 ) 0.7999752004629247, 0.2000247995370753;
    ( EPI, P, 0, 0, 3 ) 0.8974232606055211, 0.10257673939447896;
    ( EPI, P, 0, 0, 4 ) 0.8275721994646507, 0.17242780053534928;
    ( EPI, P, 0, 0, 5 ) 0.6428444901068145, 0.35715550989318545;
    ( EPI, P, 0, 0, 6 ) 0.5, 0.5;
    ( EPI, P, 0, 1, 0 ) 0.999380728263562, 0.0006192717364379488;
    ( EPI, P, 0, 1, 1 ) 0.2500774809396889, 0.7499225190603112;
    ( EPI, P, 0, 1, 2 ) 0.7894547922676308, 0.21054520773236918;
    ( EPI, P, 0, 1, 3 ) 0.794862419158935, 0.205137580841065;
    ( EPI, P, 0, 1, 4 ) 0.9047380044167838, 0.0952619955832162;
    ( EPI, P, 0, 1, 5 ) 0.9999225070518583, 7.74929481417191e-05;
    ( EPI, P, 0, 1, 6 ) 0.8888353125947153, 0.11116468740528478;
    ( EPI, P, 1, 0, 0 ) 0.2500774809396889, 0.7499225190603112;
    ( EPI, P, 1, 0, 1 ) 0.7499612535259291, 0.25003874647407087;
    ( EPI, P, 1, 0, 2 ) 0.6999875999752, 0.30001240002480006;
    ( EPI, P, 1, 0, 3 ) 0.7894547922676308, 0.21054520773236918;
    ( EPI, P, 1, 0, 4 ) 0.7499225190603112, 0.2500774809396889;
    ( EPI, P, 1, 0, 5 ) 0.999380728263562, 0.0006192717364379488;
    ( EPI, P, 1, 0, 6 ) 0.20007438631291846, 0.7999256136870816;
    ( EPI, P, 1, 1, 0 ) 0.5, 0.5;
    ( EPI, P, 1, 1, 1 ) 0.0001239771881973717, 0.9998760228118027;
    ( EPI, P, 1, 1, 2 ) 0.647048096981721, 0.3529519030182789;
    ( EPI, P, 1, 1, 3 ) 0.6499906999813999, 0.35000930001860003;
    ( EPI, P, 1, 1, 4 ) 0.6249806267629646, 0.37501937323703544;
    ( EPI, P, 1, 1, 5 ) 0.5, 0.5;
    ( EPI, P, 1, 1, 6 ) 0.5, 0.5;
    ( EPI, PC, 0, 0, 0 ) 0.00030982773577890697, 0.9996901722642212;
    ( EPI, PC, 0, 0, 1 ) 0.5, 0.5;
    ( EPI, PC, 0, 0, 2 ) 0.5555517284137722, 0.4444482715862278;
    ( EPI, PC, 0, 0, 3 ) 0.5624951563153897, 0.43750484368461023;
    ( EPI, PC, 0, 0, 4 ) 0.40002479543763947, 0.5999752045623605;
    ( EPI, PC, 0, 0, 5 ) 0.5, 0.5;
    ( EPI, PC, 0, 0, 6 ) 0.5, 0.5;
    ( EPI, PC, 0, 1, 0 ) 0.5, 0.5;
    ( EPI, PC, 0, 1, 1 ) 0.20007438631291846, 0.7999256136870816;
    ( EPI, PC, 0, 1, 2 ) 0.26317335178102935, 0.7368266482189707;
    ( EPI, PC, 0, 1, 3 ) 0.444452098200755, 0.5555479017992451;
    ( EPI, PC, 0, 1, 4 ) 0.5, 0.5;
    ( EPI, PC, 0, 1, 5 ) 0.7999256136870816, 0.20007438631291846;
    ( EPI, PC, 0, 1, 6 ) 0.5, 0.5;
    ( EPI, PC, 1, 0, 0 ) 8.856140848064047e-05, 0.9999114385915194;
    ( EPI, PC, 1, 0, 1 ) 0.250011071646841, 0.7499889283531589;
    ( EPI, PC, 1, 0, 2 ) 0.27660163897229156, 0.7233983610277085;
    ( EPI, PC, 1, 0, 3 ) 0.4642872959495487, 0.5357127040504512;
    ( EPI, PC, 1, 0, 4 ) 0.1667355457288094, 0.8332644542711907;
    ( EPI, PC, 1, 0, 5 ) 0.00030982773577890697, 0.9996901722642212;
    ( EPI, PC, 1, 0, 6 ) 0.5, 0.5;
    ( EPI, PC, 1, 1, 0 ) 0.0001033185932140348, 0.999896681406786;
    ( EPI, PC, 1, 1, 1 ) 0.3513563332417269, 0.648643666758273;
    ( EPI, PC, 1, 1, 2 ) 0.3000049601944396, 0.6999950398055604;
    ( EPI, PC, 1, 1, 3 ) 0.2963056517465945, 0.7036943482534055;
    ( EPI, PC, 1, 1, 4 ) 0.00020659449632261798, 0.9997934055036775;
    ( EPI, PC, 1, 1, 5 ) 0.3334021981654409, 0.6665978018345592;
    ( EPI, PC, 1, 1, 6 ) 0.5, 0.5;
    ( EPI, PI, 0, 0, 0 ) 0.00030982773577890697, 0.9996901722642212;
    ( EPI, PI, 0, 0, 1 ) 0.5, 0.5;
    ( EPI, PI, 0, 0, 2 ) 0.45455057826273193, 0.5454494217372681;
    ( EPI, PI, 0, 0, 3 ) 0.47059038060365577, 0.5294096193963442;
    ( EPI, PI, 0, 0, 4 ) 0.00020659449632261798, 0.9997934055036775;
    ( EPI, PI, 0, 0, 5 ) 0.6665978018345592, 0.3334021981654409;
    ( EPI, PI, 0, 0, 6 ) 0.5, 0.5;
    ( EPI, PI, 0, 1, 0 ) 0.0006192717364379488, 0.999380728263562;
    ( EPI, PI, 0, 1, 1 ) 0.40001239925604465, 0.5999876007439554;
    ( EPI, PI, 0, 1, 2 ) 0.40000496007142505, 0.599995039928575;
    ( EPI, PI, 0, 1, 3 ) 0.4230805917758043, 0.5769194082241956;
    ( EPI, PI, 0, 1, 4 ) 0.6665978018345592, 0.3334021981654409;
    ( EPI, PI, 0, 1, 5 ) 0.5, 0.5;
    ( EPI, PI, 0, 1, 6 ) 0.5, 0.5;
    ( EPI, PI, 1, 0, 0 ) 6.199628022318661e-05, 0.9999380037197768;
    ( EPI, PI, 1, 0, 1 ) 0.2291736634614888, 0.7708263365385113;
    ( EPI, PI, 1, 0, 2 ) 0.29787767335588283, 0.7021223266441172;
    ( EPI, PI, 1, 0, 3 ) 0.2941251559160569, 0.705874844083943;
    ( EPI, PI, 1, 0, 4 ) 0.3334021981654409, 0.6665978018345592;
    ( EPI, PI, 1, 0, 5 ) 0.00020659449632261798, 0.9997934055036775;
    ( EPI, PI, 1, 0, 6 ) 0.0006192717364379488, 0.999380728263562;
    ( EPI, PI, 1, 1, 0 ) 7.74929481417191e-05, 0.9999225070518583;
    ( EPI, PI, 1, 1, 1 ) 0.29231165461586894, 0.7076883453841312;
    ( EPI, PI, 1, 1, 2 ) 0.25610124943667983, 0.7438987505633202;
    ( EPI, PI, 1, 1, 3 ) 0.2500086113656248, 0.7499913886343752;
    ( EPI, PI, 1, 1, 4 ) 0.2000371977681339, 0.7999628022318661;
    ( EPI, PI, 1, 1, 5 ) 0.0001239771881973717, 0.9998760228118027;
    ( EPI, PI, 1, 1, 6 ) 0.00030982773577890697, 0.9996901722642212;
    ( EPI, SBC, 0, 0, 0 ) 0.14292040100605763, 0.8570795989939424;
    ( EPI, SBC, 0, 0, 1 ) 0.3871012904309703, 0.6128987095690297;
    ( EPI, SBC, 0, 0, 2 ) 0.5416661284447281, 0.45833387155527194;
    ( EPI, SBC, 0, 0, 3 ) 0.535713969370311, 0.464286030629689;
    ( EPI, SBC, 0, 0, 4 ) 0.6590864254592391, 0.3409135745407608;
    ( EPI, SBC, 0, 0, 5 ) 0.5789422160729902, 0.42105778392700977;
    ( EPI, SBC, 0, 0, 6 ) 0.444452098200755, 0.5555479017992451;
    ( EPI, SBC, 0, 1, 0 ) 0.00030982773577890697, 0.9996901722642212;
    ( EPI, SBC, 0, 1, 1 ) 0.4242452709659479, 0.575754729034052;
    ( EPI, SBC, 0, 1, 2 ) 0.5446423628564911, 0.4553576371435088;
    ( EPI, SBC, 0, 1, 3 ) 0.43650856138430855, 0.5634914386156914;
    ( EPI, SBC, 0, 1, 4 ) 0.5882320760359756, 0.4117679239640244;
    ( EPI, SBC, 0, 1, 5 ) 0.749980625261559, 0.25001937473844105;
    ( EPI, SBC, 0, 1, 6 ) 0.7499225190603112, 0.2500774809396889;
    ( EPI, SBC, 1, 0, 0 ) 0.1333636438786476, 0.8666363561213524;
    ( EPI, SBC, 1, 0, 1 ) 0.3333346841713662, 0.6666653158286338;
    ( EPI, SBC, 1, 0, 2 ) 0.3688531255431673, 0.6311468744568327;
    ( EPI, SBC, 1, 0, 3 ) 0.45341650787097726, 0.5465834921290227;
    ( EPI, SBC, 1, 0, 4 ) 0.28261455598268254, 0.7173854440173175;
    ( EPI, SBC, 1, 0, 5 ) 0.3636517347881958, 0.6363482652118042;
    ( EPI, SBC, 1, 0, 6 ) 0.20007438631291846, 0.7999256136870816;
    ( EPI, SBC, 1, 1, 0 ) 0.03705829942407848, 0.9629417005759214;
    ( EPI, SBC, 1, 1, 1 ) 0.3063597695332604, 0.6936402304667396;
    ( EPI, SBC, 1, 1, 2 ) 0.3783789606939815, 0.6216210393060185;
    ( EPI, SBC, 1, 1, 3 ) 0.3636373884876406, 0.6363626115123594;
    ( EPI, SBC, 1, 1, 4 ) 0.4000041334270243, 0.5999958665729757;
    ( EPI, SBC, 1, 1, 5 ) 0.2500774809396889, 0.7499225190603112;
    ( EPI, SBC, 1, 1, 6 ) 0.0001549618793776731, 0.9998450381206223;
    ( EPI, SBI, 0, 0, 0 ) 0.6665978018345592, 0.3334021981654409;
    ( EPI, SBI, 0, 0, 1 ) 0.6666528891460692, 0.3333471108539307;
    ( EPI, SBI, 0, 0, 2 ) 0.5434770888034635, 0.4565229111965365;
    ( EPI, SBI, 0, 0, 3 ) 0.5937481835126892, 0.4062518164873108;
    ( EPI, SBI, 0, 0, 4 ) 0.6666528891460692, 0.3333471108539307;
    ( EPI, SBI, 0, 0, 5 ) 0.00030982773577890697, 0.9996901722642212;
    ( EPI, SBI, 0, 0, 6 ) 0.5, 0.5;
    ( EPI, SBI, 0, 1, 0 ) 0.5, 0.5;
    ( EPI, SBI, 0, 1, 1 ) 0.42105778392700977, 0.5789422160729902;
    ( EPI, SBI, 0, 1, 2 ) 0.4918034453176775, 0.5081965546823225;
    ( EPI, SBI, 0, 1, 3 ) 0.568964042743339, 0.43103595725666105;
    ( EPI, SBI, 0, 1, 4 ) 0.5, 0.5;
    ( EPI, SBI, 0, 1, 5 ) 0.6666322271355953, 0.33336777286440467;
    ( EPI, SBI, 0, 1, 6 ) 0.2500774809396889, 0.7499225190603112;
    ( EPI, SBI, 1, 0, 0 ) 0.10004959702417857, 0.8999504029758215;
    ( EPI, SBI, 1, 0, 1 ) 0.36250213135337067, 0.6374978686466294;
    ( EPI, SBI, 1, 0, 2 ) 0.38345973322691745, 0.6165402667730825;
    ( EPI, SBI, 1, 0, 3 ) 0.3775525698421576, 0.6224474301578424;
    ( EPI, SBI, 1, 0, 4 ) 0.3077014794395108, 0.6922985205604891;
    ( EPI, SBI, 1, 0, 5 ) 0.2500774809396889, 0.7499225190603112;
    ( EPI, SBI, 1, 0, 6 ) 0.0001239771881973717, 0.9998760228118027;
    ( EPI, SBI, 1, 1, 0 ) 0.05885570905483668, 0.9411442909451633;
    ( EPI, SBI, 1, 1, 1 ) 0.23158245114803744, 0.7684175488519626;
    ( EPI, SBI, 1, 1, 2 ) 0.3055572300310189, 0.694442769968981;
    ( EPI, SBI, 1, 1, 3 ) 0.35802686491302743, 0.6419731350869726;
    ( EPI, SBI, 1, 1, 4 ) 0.3333471108539307, 0.6666528891460692;
    ( EPI, SBI, 1, 1, 5 ) 0.18185404783912346, 0.8181459521608765;
    ( EPI, SBI, 1, 1, 6 ) 0.0001033185932140348, 0.999896681406786;
    ( EPI, TC, 0, 0, 0 ) 0.0006192717364379488, 0.999380728263562;
    ( EPI, TC, 0, 0, 1 ) 0.7272471086863403, 0.2727528913136596;
    ( EPI, TC, 0, 0, 2 ) 0.6938726445415112, 0.3061273554584888;
    ( EPI, TC, 0, 0, 3 ) 0.6417884204642623, 0.35821157953573773;
    ( EPI, TC, 0, 0, 4 ) 0.47826204159972396, 0.521737958400276;
    ( EPI, TC, 0, 0, 5 ) 0.3334021981654409, 0.6665978018345592;
    ( EPI, TC, 0, 0, 6 ) 0.999380728263562, 0.0006192717364379488;
    ( EPI, TC, 0, 1, 0 ) 0.0006192717364379488, 0.999380728263562;
    ( EPI, TC, 0, 1, 1 ) 0.68180793380604, 0.31819206619396;
    ( EPI, TC, 0, 1, 2 ) 0.6078405150824024, 0.3921594849175975;
    ( EPI, TC, 0, 1, 3 ) 0.6999964569788659, 0.30000354302113413;
    ( EPI, TC, 0, 1, 4 ) 0.6666568253480875, 0.33334317465191254;
    ( EPI, TC, 0, 1, 5 ) 0.3334021981654409, 0.6665978018345592;
    ( EPI, TC, 0, 1, 6 ) 0.999380728263562, 0.0006192717364379488;
    ( EPI, TC, 1, 0, 0 ) 0.3636517347881958, 0.6363482652118042;
    ( EPI, TC, 1, 0, 1 ) 0.3661995200452709, 0.6338004799547292;
    ( EPI, TC, 1, 0, 2 ) 0.5576916197866612, 0.4423083802133388;
    ( EPI, TC, 1, 0, 3 ) 0.5299996279808038, 0.4700003720191962;
    ( EPI, TC, 1, 0, 4 ) 0.36842963987834965, 0.6315703601216504;
    ( EPI, TC, 1, 0, 5 ) 0.20007438631291846, 0.7999256136870816;
    ( EPI, TC, 1, 0, 6 ) 0.5, 0.5;
    ( EPI, TC, 1, 1, 0 ) 0.444452098200755, 0.5555479017992451;
    ( EPI, TC, 1, 1, 1 ) 0.3896121673983554, 0.6103878326016446;
    ( EPI, TC, 1, 1, 2 ) 0.4342110630493629, 0.565788936950637;
    ( EPI, TC, 1, 1, 3 ) 0.4655176100077611, 0.5344823899922388;
    ( EPI, TC, 1, 1, 4 ) 0.157917063683709, 0.8420829363162909;
    ( EPI, TC, 1, 1, 5 ) 0.00030982773577890697, 0.9996901722642212;
    ( EPI, TC, 1, 1, 6 ) 0.3334021981654409, 0.6665978018345592;
    ( EPI, TI, 0, 0, 0 ) 0.00030982773577890697, 0.9996901722642212;
    ( EPI, TI, 0, 0, 1 ) 0.7499225190603112, 0.2500774809396889;
    ( EPI, TI, 0, 0, 2 ) 0.5294096193963442, 0.47059038060365577;
    ( EPI, TI, 0, 0, 3 ) 0.55555364191875, 0.44444635808124994;
    ( EPI, TI, 0, 0, 4 ) 0.6249806267629646, 0.37501937323703544;
    ( EPI, TI, 0, 0, 5 ) 0.40002479543763947, 0.5999752045623605;
    ( EPI, TI, 0, 0, 6 ) 0.5, 0.5;
    ( EPI, TI, 0, 1, 0 ) 0.00030982773577890697, 0.9996901722642212;
    ( EPI, TI, 0, 1, 1 ) 0.5, 0.5;
    ( EPI, TI, 0, 1, 2 ) 0.5862032103854344, 0.41379678961456556;
    ( EPI, TI, 0, 1, 3 ) 0.575754729034052, 0.4242452709659479;
    ( EPI, TI, 0, 1, 4 ) 0.25003874647407087, 0.7499612535259291;
    ( EPI, TI, 0, 1, 5 ) 0.5, 0.5;
    ( EPI, TI, 0, 1, 6 ) 0.9996901722642212, 0.00030982773577890697;
    ( EPI, TI, 1, 0, 0 ) 0.11116468740528478, 0.8888353125947153;
    ( EPI, TI, 1, 0, 1 ) 0.2580741937806507, 0.7419258062193492;
    ( EPI, TI, 1, 0, 2 ) 0.3469426490461754, 0.6530573509538247;
    ( EPI, TI, 1, 0, 3 ) 0.3863668389576863, 0.6136331610423137;
    ( EPI, TI, 1, 0, 4 ) 0.12502906210766154, 0.8749709378923385;
    ( EPI, TI, 1, 0, 5 ) 8.856140848064047e-05, 0.9999114385915194;
    ( EPI, TI, 1, 0, 6 ) 0.999380728263562, 0.0006192717364379488;
    ( EPI, TI, 1, 1, 0 ) 0.3333562946022649, 0.6666437053977351;
    ( EPI, TI, 1, 1, 1 ) 0.2631656235111375, 0.7368343764888625;
    ( EPI, TI, 1, 1, 2 ) 0.3676494724287971, 0.632350527571203;
    ( EPI, TI, 1, 1, 3 ) 0.4285735374876734, 0.5714264625123266;
    ( EPI, TI, 1, 1, 4 ) 0.40001239925604465, 0.5999876007439554;
    ( EPI, TI, 1, 1, 5 ) 0.1667355457288094, 0.8332644542711907;
    ( EPI, TI, 1, 1, 6 ) 0.5, 0.5;
    ( N, EPC, 0, 0, 0 ) 0.5, 0.5;
    ( N, EPC, 0, 0, 1 ) 0.5, 0.5;
    ( N, EPC, 0, 0, 2 ) 0.2500774809396889, 0.7499225190603112;
    ( N, EPC, 0, 0, 3 ) 0.00030982773577890697, 0.9996901722642212;
    ( N, EPC, 0, 0, 4 ) 0.5, 0.5;
    ( N, EPC, 0, 0, 5 ) 0.5, 0.5;
    ( N, EPC, 0, 0, 6 ) 0.5, 0.5;
    ( N, EPC, 0, 1, 0 ) 0.5, 0.5;
    ( N, EPC, 0, 1, 1 ) 0.0006192717364379488, 0.999380728263562;
    ( N, EPC, 0, 1, 2 ) 0.0006192717364379488, 0.999380728263562;
    ( N, EPC, 0, 1, 3 ) 0.5, 0.5;
    ( N, EPC, 0, 1, 4 ) 0.5, 0.5;
    ( N, EPC, 0, 1, 5 ) 0.5, 0.5;
    ( N, EPC, 0, 1, 6 ) 0.5, 0.5;
    ( N, EPC, 1, 0, 0 ) 0.0001549618793776731, 0.9998450381206223;
    ( N, EPC, 1, 0, 1 ) 0.1250581197111063, 0.8749418802888937;
    ( N, EPC, 1, 0, 2 ) 6.199628022318661e-05, 0.9999380037197768;
    ( N, EPC, 1, 0, 3 ) 0.14292040100605763, 0.8570795989939424;
    ( N, EPC, 1, 0, 4 ) 0.00030982773577890697, 0.9996901722642212;
    ( N, EPC, 1, 0, 5 ) 0.5, 0.5;
    ( N, EPC, 1, 0, 6 ) 0.5, 0.5;
    ( N, EPC, 1, 1, 0 ) 0.0001239771881973717, 0.9998760228118027;
    ( N, EPC, 1, 1, 1 ) 0.11116468740528478, 0.8888353125947153;
    ( N, EPC, 1, 1, 2 ) 0.0001033185932140348, 0.999896681406786;
    ( N, EPC, 1, 1, 3 ) 0.0001549618793776731, 0.9998450381206223;
    ( N, EPC, 1, 1, 4 ) 0.00030982773577890697, 0.9996901722642212;
    ( N, EPC, 1, 1, 5 ) 0.0006192717364379488, 0.999380728263562;
    ( N, EPC, 1, 1, 6 ) 0.0006192717364379488, 0.999380728263562;
    ( N, EPI, 0, 0, 0 ) 0.5, 0.5;
    ( N, EPI, 0, 0, 1 ) 0.5, 0.5;
    ( N, EPI, 0, 0, 2 ) 0.0006192717364379488, 0.999380728263562;
    ( N, EPI, 0, 0, 3 ) 0.5, 0.5;
    ( N, EPI, 0, 0, 4 ) 0.5, 0.5;
    ( N, EPI, 0, 0, 5 ) 0.5, 0.5;
    ( N, EPI, 0, 0, 6 ) 0.5, 0.5;
    ( N, EPI, 0, 1, 0 ) 0.5, 0.5;
    ( N, EPI, 0, 1, 1 ) 0.0006192717364379488, 0.999380728263562;
    ( N, EPI, 0, 1, 2 ) 0.5, 0.5;
    ( N, EPI, 0, 1, 3 ) 0.5, 0.5;
    ( N, EPI, 0, 1, 4 ) 0.5, 0.5;
    ( N, EPI, 0, 1, 5 ) 0.5, 0.5;
    ( N, EPI, 0, 1, 6 ) 0.5, 0.5;
    ( N, EPI, 1, 0, 0 ) 0.0001549618793776731, 0.9998450381206223;
    ( N, EPI, 1, 0, 1 ) 0.0001033185932140348, 0.999896681406786;
    ( N, EPI, 1, 0, 2 ) 0.0001239771881973717, 0.9998760228118027;
    ( N, EPI, 1, 0, 3 ) 0.00020659449632261798, 0.9997934055036775;
    ( N, EPI, 1, 0, 4 ) 0.0006192717364379488, 0.999380728263562;
    ( N, EPI, 1, 0, 5 ) 0.0006192717364379488, 0.999380728263562;
    ( N, EPI, 1, 0, 6 ) 0.5, 0.5;
    ( N, EPI, 1, 1, 0 ) 0.00030982773577890697, 0.9996901722642212;
    ( N, EPI, 1, 1, 1 ) 0.0001239771881973717, 0.9998760228118027;
    ( N, EPI, 1, 1, 2 ) 0.00030982773577890697, 0.9996901722642212;
    ( N, EPI, 1, 1, 3 ) 0.00020659449632261798, 0.9997934055036775;
    ( N, EPI, 1, 1, 4 ) 0.00030982773577890697, 0.9996901722642212;
    ( N, EPI, 1, 1, 5 ) 0.5, 0.5;
    ( N, EPI, 1, 1, 6 ) 0.0006192717364379488, 0.999380728263562;
    ( N, N, 0, 0, 0 ) 4.769081093454913e-05, 0.9999523091890654;
    ( N, N, 0, 0, 1 ) 0.24675732520799182, 0.7532426747920082;
    ( N, N, 0, 0, 2 ) 0.05770285545311896, 0.9422971445468811;
    ( N, N, 0, 0, 3 ) 0.11112450656874971, 0.8888754934312504;
    ( N, N, 0, 0, 4 ) 0.0001549618793776731, 0.9998450381206223;
    ( N, N, 0, 0, 5 ) 0.5, 0.5;
    ( N, N, 0, 0, 6 ) 0.0006192717364379488, 0.999380728263562;
    ( N, N, 0, 1, 0 ) 2.952395573768555e-05, 0.9999704760442623;
    ( N, N, 0, 1, 1 ) 0.11403928615716637, 0.8859607138428336;
    ( N, N, 0, 1, 2 ) 0.054061527014843826, 0.9459384729851561;
    ( N, N, 0, 1, 3 ) 2.5833651948374025e-05, 0.9999741663480516;
    ( N, N, 0, 1, 4 ) 0.40002479543763947, 0.5999752045623605;
    ( N, N, 0, 1, 5 ) 0.00030982773577890697, 0.9996901722642212;
    ( N, N, 0, 1, 6 ) 0.0006192717364379488, 0.999380728263562;
    ( N, N, 1, 0, 0 ) 0.0213935481817374, 0.9786064518182627;
    ( N, N, 1, 0, 1 ) 0.11358681332520977, 0.8864131866747902;
    ( N, N, 1, 0, 2 ) 0.11020605459358504, 0.889793945406415;
    ( N, N, 1, 0, 3 ) 0.041672587107991425, 0.9583274128920085;
    ( N, N, 1, 0, 4 ) 3.1000062000123996e-05, 0.9999689999379998;
    ( N, N, 1, 0, 5 ) 3.647026214824431e-05, 0.9999635297378516;
    ( N, N, 1, 0, 6 ) 5.636089005117569e-05, 0.9999436391099489;
    ( N, N, 1, 1, 0 ) 0.017243959723292734, 0.9827560402767073;
    ( N, N, 1, 1, 1 ) 0.08703465738863209, 0.912965342611368;
    ( N, N, 1, 1, 2 ) 0.05904260819986145, 0.9409573918001386;
    ( N, N, 1, 1, 3 ) 0.0206246851900621, 0.9793753148099379;
    ( N, N, 1, 1, 4 ) 2.0667135121729422e-05, 0.9999793328648782;
    ( N, N, 1, 1, 5 ) 3.2631537728583916e-05, 0.9999673684622713;
    ( N, N, 1, 1, 6 ) 5.636089005117569e-05, 0.9999436391099489;
    ( N, NAP, 0, 0, 0 ) 0.5, 0.5;
    ( N, NAP, 0, 0, 1 ) 0.5, 0.5;
    ( N, NAP, 0, 0, 2 ) 0.0006192717364379488, 0.999380728263562;
    ( N, NAP, 0, 0, 3 ) 0.0006192717364379488, 0.999380728263562;
    ( N, NAP, 0, 0, 4 ) 0.5, 0.5;
    ( N, NAP, 0, 0, 5 ) 0.0006192717364379488, 0.999380728263562;
    ( N, NAP, 0, 0, 6 ) 0.5, 0.5;
    ( N, NAP, 0, 1, 0 ) 0.0006192717364379488, 0.999380728263562;
    ( N, NAP, 0, 1, 1 ) 0.0006192717364379488, 0.999380728263562;
    ( N, NAP, 0, 1, 2 ) 0.0006192717364379488, 0.999380728263562;
    ( N, NAP, 0, 1, 3 ) 0.5, 0.5;
    ( N, NAP, 0, 1, 4 ) 0.5, 0.5;
    ( N, NAP, 0, 1, 5 ) 0.5, 0.5;
    ( N, NAP, 0, 1, 6 ) 0.5, 0.5;
    ( N, NAP, 1, 0, 0 ) 7.74929481417191e-05, 0.9999225070518583;
    ( N, NAP, 1, 0, 1 ) 0.1250581197111063, 0.8749418802888937;
    ( N, NAP, 1, 0, 2 ) 0.20007438631291846, 0.7999256136870816;
    ( N, NAP, 1, 0, 3 ) 0.00030982773577890697, 0.9996901722642212;
    ( N, NAP, 1, 0, 4 ) 0.5, 0.5;
    ( N, NAP, 1, 0, 5 ) 0.5, 0.5;
    ( N, NAP, 1, 0, 6 ) 0.5, 0.5;
    ( N, NAP, 1, 1, 0 ) 0.0001549618793776731, 0.9998450381206223;
    ( N, NAP, 1, 1, 1 ) 0.0769634306861754, 0.9230365693138246;
    ( N, NAP, 1, 1, 2 ) 0.16670110975634958, 0.8332988902436504;
    ( N, NAP, 1, 1, 3 ) 0.0001549618793776731, 0.9998450381206223;
    ( N, NAP, 1, 1, 4 ) 0.0006192717364379488, 0.999380728263562;
    ( N, NAP, 1, 1, 5 ) 0.0006192717364379488, 0.999380728263562;
    ( N, NAP, 1, 1, 6 ) 0.0006192717364379488, 0.999380728263562;
    ( N, NS, 0, 0, 0 ) 0.5, 0.5;
    ( N, NS, 0, 0, 1 ) 0.5, 0.5;
    ( N, NS, 0, 0, 2 ) 0.0006192717364379488, 0.999380728263562;
    ( N, NS, 0, 0, 3 ) 0.999380728263562, 0.0006192717364379488;
    ( N, NS, 0, 0, 4 ) 0.0006192717364379488, 0.999380728263562;
    ( N, NS, 0, 0, 5 ) 0.5, 0.5;
    ( N, NS, 0, 0, 6 ) 0.5, 0.5;
    ( N, NS, 0, 1, 0 ) 0.5, 0.5;
    ( N, NS, 0, 1, 1 ) 0.5, 0.5;
    ( N, NS, 0, 1, 2 ) 0.0001549618793776731, 0.9998450381206223;
    ( N, NS, 0, 1, 3 ) 0.2500774809396889, 0.7499225190603112;
    ( N, NS, 0, 1, 4 ) 0.5, 0.5;
    ( N, NS, 0, 1, 5 ) 0.5, 0.5;
    ( N, NS, 0, 1, 6 ) 0.0006192717364379488, 0.999380728263562;
    ( N, NS, 1, 0, 0 ) 0.0001549618793776731, 0.9998450381206223;
    ( N, NS, 1, 0, 1 ) 0.1904944672106947, 0.8095055327893051;
    ( N, NS, 1, 0, 2 ) 0.0667024882202199, 0.9332975117797802;
    ( N, NS, 1, 0, 3 ) 0.0001239771881973717, 0.9998760228118027;
    ( N, NS, 1, 0, 4 ) 0.0006192717364379488, 0.999380728263562;
    ( N, NS, 1, 0, 5 ) 0.00030982773577890697, 0.9996901722642212;
    ( N, NS, 1, 0, 6 ) 0.5, 0.5;
    ( N, NS, 1, 1, 0 ) 0.0001033185932140348, 0.999896681406786;
    ( N, NS, 1, 1, 1 ) 0.047632404088598104, 0.952367595911402;
    ( N, NS, 1, 1, 2 ) 0.12001884827141508, 0.8799811517285848;
    ( N, NS, 1, 1, 3 ) 0.14292040100605763, 0.8570795989939424;
    ( N, NS, 1, 1, 4 ) 0.00030982773577890697, 0.9996901722642212;
    ( N, NS, 1, 1, 5 ) 0.0006192717364379488, 0.999380728263562;
    ( N, NS, 1, 1, 6 ) 0.5, 0.5;
    ( N, P, 0, 0, 0 ) 0.5, 0.5;
    ( N, P, 0, 0, 1 ) 0.0006192717364379488, 0.999380728263562;
    ( N, P, 0, 0, 2 ) 0.999380728263562, 0.0006192717364379488;
    ( N, P, 0, 0, 3 ) 0.00030982773577890697, 0.9996901722642212;
    ( N, P, 0, 0, 4 ) 0.5, 0.5;
    ( N, P, 0, 0, 5 ) 0.5, 0.5;
    ( N, P, 0, 0, 6 ) 0.5, 0.5;
    ( N, P, 0, 1, 0 ) 0.0006192717364379488, 0.999380728263562;
    ( N, P, 0, 1, 1 ) 0.5, 0.5;
    ( N, P, 0, 1, 2 ) 0.5, 0.5;
    ( N, P, 0, 1, 3 ) 0.0006192717364379488, 0.999380728263562;
    ( N, P, 0, 1, 4 ) 0.5, 0.5;
    ( N, P, 0, 1, 5 ) 0.5, 0.5;
    ( N, P, 0, 1, 6 ) 0.5, 0.5;
    ( N, P, 1, 0, 0 ) 0.0006192717364379488, 0.999380728263562;
    ( N, P, 1, 0, 1 ) 0.5, 0.5;
    ( N, P, 1, 0, 2 ) 0.00030982773577890697, 0.9996901722642212;
    ( N, P, 1, 0, 3 ) 0.0006192717364379488, 0.999380728263562;
    ( N, P, 1, 0, 4 ) 0.0006192717364379488, 0.999380728263562;
    ( N, P, 1, 0, 5 ) 0.5, 0.5;
    ( N, P, 1, 0, 6 ) 0.5, 0.5;
    ( N, P, 1, 1, 0 ) 0.0006192717364379488, 0.999380728263562;
    ( N, P, 1, 1, 1 ) 0.00030982773577890697, 0.9996901722642212;
    ( N, P, 1, 1, 2 ) 0.5, 0.5;
    ( N, P, 1, 1, 3 ) 0.5, 0.5;
    ( N, P, 1, 1, 4 ) 0.5, 0.5;
    ( N, P, 1, 1, 5 ) 0.5, 0.5;
    ( N, P, 1, 1, 6 ) 0.5, 0.5;
    ( N, PC, 0, 0, 0 ) 0.5, 0.5;
    ( N, PC, 0, 0, 1 ) 7.74929481417191e-05, 0.9999225070518583;
    ( N, PC, 0, 0, 2 ) 0.3077106503118979, 0.6922893496881021;
    ( N, PC, 0, 0, 3 ) 0.22226049100377482, 0.7777395089962251;
    ( N, PC, 0, 0, 4 ) 0.2857522406036346, 0.7142477593963654;
    ( N, PC, 0, 0, 5 ) 0.0006192717364379488, 0.999380728263562;
    ( N, PC, 0, 0, 6 ) 0.0006192717364379488, 0.999380728263562;
    ( N, PC, 0, 1, 0 ) 0.00020659449632261798, 0.9997934055036775;
    ( N, PC, 0, 1, 1 ) 3.874947688206208e-05, 0.9999612505231178;
    ( N, PC, 0, 1, 2 ) 0.1250581197111063, 0.8749418802888937;
    ( N, PC, 0, 1, 3 ) 0.0001239771881973717, 0.9998760228118027;
    ( N, PC, 0, 1, 4 ) 0.00030982773577890697, 0.9996901722642212;
    ( N, PC, 0, 1, 5 ) 0.5, 0.5;
    ( N, PC, 0, 1, 6 ) 0.0006192717364379488, 0.999380728263562;
    ( N, PC, 1, 0, 0 ) 2.48003571251426e-05, 0.9999751996428748;
    ( N, PC, 1, 0, 1 ) 0.11340700418553394, 0.886592995814466;
    ( N, PC, 1, 0, 2 ) 0.10000708604226824, 0.8999929139577317;
    ( N, PC, 1, 0, 3 ) 0.06668457818377216, 0.9333154218162278;
    ( N, PC, 1, 0, 4 ) 0.06453354880517131, 0.9354664511948286;
    ( N, PC, 1, 0, 5 ) 7.74929481417191e-05, 0.9999225070518583;
    ( N, PC, 1, 0, 6 ) 0.0001549618793776731, 0.9998450381206223;
    ( N, PC, 1, 1, 0 ) 0.03848355065482606, 0.9615164493451739;
    ( N, PC, 1, 1, 1 ) 0.048391613147109935, 0.9516083868528901;
    ( N, PC, 1, 1, 2 ) 0.11236495166544516, 0.8876350483345548;
    ( N, PC, 1, 1, 3 ) 0.06251695355307721, 0.9374830464469227;
    ( N, PC, 1, 1, 4 ) 4.133256179217988e-05, 0.9999586674382078;
    ( N, PC, 1, 1, 5 ) 0.1667355457288094, 0.8332644542711907;
    ( N, PC, 1, 1, 6 ) 0.0001239771881973717, 0.9998760228118027;
    ( N, PI, 0, 0, 0 ) 0.25003874647407087, 0.7499612535259291;
    ( N, PI, 0, 0, 1 ) 0.12501162538363766, 0.8749883746163624;
    ( N, PI, 0, 0, 2 ) 0.09092446321611891, 0.9090755367838811;
    ( N, PI, 0, 0, 3 ) 0.235313425432902, 0.764686574567098;
    ( N, PI, 0, 0, 4 ) 0.0001549618793776731, 0.9998450381206223;
    ( N, PI, 0, 0, 5 ) 0.00020659449632261798, 0.9997934055036775;
    ( N, PI, 0, 0, 6 ) 0.5, 0.5;
    ( N, PI, 0, 1, 0 ) 0.0001239771881973717, 0.9998760228118027;
    ( N, PI, 0, 1, 1 ) 0.033908101541449305, 0.9660918984585507;
    ( N, PI, 0, 1, 2 ) 0.03335262265944695, 0.966647377340553;
    ( N, PI, 0, 1, 3 ) 0.11767494784752512, 0.8823250521524749;
    ( N, PI, 0, 1, 4 ) 0.0001549618793776731, 0.9998450381206223;
    ( N, PI, 0, 1, 5 ) 0.5, 0.5;
    ( N, PI, 0, 1, 6 ) 0.0006192717364379488, 0.999380728263562;
    ( N, PI, 1, 0, 0 ) 0.010210279368630438, 0.9897897206313695;
    ( N, PI, 1, 0, 1 ) 0.12455681700834159, 0.8754431829916585;
    ( N, PI, 1, 0, 2 ) 0.07362287571456178, 0.9263771242854383;
    ( N, PI, 1, 0, 3 ) 0.04000760569435029, 0.9599923943056496;
    ( N, PI, 1, 0, 4 ) 0.04350287359420321, 0.9564971264057968;
    ( N, PI, 1, 0, 5 ) 6.88838067946987e-05, 0.9999311161932053;
    ( N, PI, 1, 0, 6 ) 0.2500774809396889, 0.7499225190603112;
    ( N, PI, 1, 1, 0 ) 0.00893400857859691, 0.9910659914214031;
    ( N, PI, 1, 1, 1 ) 0.10219098130110786, 0.8978090186988922;
    ( N, PI, 1, 1, 2 ) 0.10121657701657483, 0.8987834229834252;
    ( N, PI, 1, 1, 3 ) 0.07955137942793689, 0.920448620572063;
    ( N, PI, 1, 1, 4 ) 2.137976448051448e-05, 0.9999786202355194;
    ( N, PI, 1, 1, 5 ) 6.199628022318661e-05, 0.9999380037197768;
    ( N, PI, 1, 1, 6 ) 0.00020659449632261798, 0.9997934055036775;
    ( N, SBC, 0, 0, 0 ) 0.0006192717364379488, 0.999380728263562;
    ( N, SBC, 0, 0, 1 ) 5.166463452437537e-05, 0.9999483353654757;
    ( N, SBC, 0, 0, 2 ) 0.0667024882202199, 0.9332975117797802;
    ( N, SBC, 0, 0, 3 ) 0.37501937323703544, 0.6249806267629646;
    ( N, SBC, 0, 0, 4 ) 0.5, 0.5;
    ( N, SBC, 0, 0, 5 ) 0.0006192717364379488, 0.999380728263562;
    ( N, SBC, 0, 0, 6 ) 0.5, 0.5;
    ( N, SBC, 0, 1, 0 ) 0.00020659449632261798, 0.9997934055036775;
    ( N, SBC, 0, 1, 1 ) 5.636089005117569e-05, 0.9999436391099489;
    ( N, SBC, 0, 1, 2 ) 0.16670110975634958, 0.8332988902436504;
    ( N, SBC, 0, 1, 3 ) 0.0001549618793776731, 0.9998450381206223;
    ( N, SBC, 0, 1, 4 ) 0.0006192717364379488, 0.999380728263562;
    ( N, SBC, 0, 1, 5 ) 0.5, 0.5;
    ( N, SBC, 0, 1, 6 ) 0.0006192717364379488, 0.999380728263562;
    ( N, SBC, 1, 0, 0 ) 0.03705829942407848, 0.9629417005759214;
    ( N, SBC, 1, 0, 1 ) 0.05480208329794353, 0.9451979167020564;
    ( N, SBC, 1, 0, 2 ) 0.1636439474218204, 0.8363560525781796;
    ( N, SBC, 1, 0, 3 ) 0.1739306239958594, 0.8260693760041405;
    ( N, SBC, 1, 0, 4 ) 5.636089005117569e-05, 0.9999436391099489;
    ( N, SBC, 1, 0, 5 ) 0.0001033185932140348, 0.999896681406786;
    ( N, SBC, 1, 0, 6 ) 0.00030982773577890697, 0.9996901722642212;
    ( N, SBC, 1, 1, 0 ) 2.0667135121729422e-05, 0.9999793328648782;
    ( N, SBC, 1, 1, 1 ) 0.1011291531629943, 0.8988708468370057;
    ( N, SBC, 1, 1, 2 ) 0.10170328677178396, 0.898296713228216;
    ( N, SBC, 1, 1, 3 ) 0.04350287359420321, 0.9564971264057968;
    ( N, SBC, 1, 1, 4 ) 6.199628022318661e-05, 0.9999380037197768;
    ( N, SBC, 1, 1, 5 ) 0.0001549618793776731, 0.9998450381206223;
    ( N, SBC, 1, 1, 6 ) 7.74929481417191e-05, 0.9999225070518583;
    ( N, SBI, 0, 0, 0 ) 0.00030982773577890697, 0.9996901722642212;
    ( N, SBI, 0, 0, 1 ) 4.769081093454913e-05, 0.9999523091890654;
    ( N, SBI, 0, 0, 2 ) 0.3333562946022649, 0.6666437053977351;
    ( N, SBI, 0, 0, 3 ) 0.0001549618793776731, 0.9998450381206223;
    ( N, SBI, 0, 0, 4 ) 0.9996901722642212, 0.00030982773577890697;
    ( N, SBI, 0, 0, 5 ) 0.00030982773577890697, 0.9996901722642212;
    ( N, SBI, 0, 0, 6 ) 0.0006192717364379488, 0.999380728263562;
    ( N, SBI, 0, 1, 0 ) 0.00020659449632261798, 0.9997934055036775;
    ( N, SBI, 0, 1, 1 ) 5.166463452437537e-05, 0.9999483353654757;
    ( N, SBI, 0, 1, 2 ) 0.16670110975634958, 0.8332988902436504;
    ( N, SBI, 0, 1, 3 ) 0.0001549618793776731, 0.9998450381206223;
    ( N, SBI, 0, 1, 4 ) 0.5, 0.5;
    ( N, SBI, 0, 1, 5 ) 0.00020659449632261798, 0.9997934055036775;
    ( N, SBI, 0, 1, 6 ) 0.5, 0.5;
    ( N, SBI, 1, 0, 0 ) 0.0555861726898224, 0.9444138273101775;
    ( N, SBI, 1, 0, 1 ) 0.11364180812296903, 0.8863581918770309;
    ( N, SBI, 1, 0, 2 ) 0.1923125840617359, 0.8076874159382641;
    ( N, SBI, 1, 0, 3 ) 0.09376574258500026, 0.9062342574149996;
    ( N, SBI, 1, 0, 4 ) 3.1000062000123996e-05, 0.9999689999379998;
    ( N, SBI, 1, 0, 5 ) 0.2857522406036346, 0.7142477593963654;
    ( N, SBI, 1, 0, 6 ) 0.00020659449632261798, 0.9997934055036775;
    ( N, SBI, 1, 1, 0 ) 0.03335262265944695, 0.966647377340553;
    ( N, SBI, 1, 1, 1 ) 0.06034952759895406, 0.9396504724010459;
    ( N, SBI, 1, 1, 2 ) 0.11765403146096921, 0.8823459685390308;
    ( N, SBI, 1, 1, 3 ) 0.08334768560937468, 0.9166523143906253;
    ( N, SBI, 1, 1, 4 ) 0.22226049100377482, 0.7777395089962251;
    ( N, SBI, 1, 1, 5 ) 6.88838067946987e-05, 0.9999311161932053;
    ( N, SBI, 1, 1, 6 ) 0.0001033185932140348, 0.999896681406786;
    ( N, TC, 0, 0, 0 ) 0.5, 0.5;
    ( N, TC, 0, 0, 1 ) 0.5, 0.5;
    ( N, TC, 0, 0, 2 ) 0.00030982773577890697, 0.9996901722642212;
    ( N, TC, 0, 0, 3 ) 0.0006192717364379488, 0.999380728263562;
    ( N, TC, 0, 0, 4 ) 0.0006192717364379488, 0.999380728263562;
    ( N, TC, 0, 0, 5 ) 0.5, 0.5;
    ( N, TC, 0, 0, 6 ) 0.5, 0.5;
    ( N, TC, 0, 1, 0 ) 0.0006192717364379488, 0.999380728263562;
    ( N, TC, 0, 1, 1 ) 0.999380728263562, 0.0006192717364379488;
    ( N, TC, 0, 1, 2 ) 0.0006192717364379488, 0.999380728263562;
    ( N, TC, 0, 1, 3 ) 0.3334021981654409, 0.6665978018345592;
    ( N, TC, 0, 1, 4 ) 0.5, 0.5;
    ( N, TC, 0, 1, 5 ) 0.5, 0.5;
    ( N, TC, 0, 1, 6 ) 0.5, 0.5;
    ( N, TC, 1, 0, 0 ) 0.3334021981654409, 0.6665978018345592;
    ( N, TC, 1, 0, 1 ) 0.10004959702417857, 0.8999504029758215;
    ( N, TC, 1, 0, 2 ) 0.2000371977681339, 0.7999628022318661;
    ( N, TC, 1, 0, 3 ) 0.0001549618793776731, 0.9998450381206223;
    ( N, TC, 1, 0, 4 ) 0.00030982773577890697, 0.9996901722642212;
    ( N, TC, 1, 0, 5 ) 0.5, 0.5;
    ( N, TC, 1, 0, 6 ) 0.00030982773577890697, 0.9996901722642212;
    ( N, TC, 1, 1, 0 ) 0.00030982773577890697, 0.9996901722642212;
    ( N, TC, 1, 1, 1 ) 0.22226049100377482, 0.7777395089962251;
    ( N, TC, 1, 1, 2 ) 0.1667355457288094, 0.8332644542711907;
    ( N, TC, 1, 1, 3 ) 0.20007438631291846, 0.7999256136870816;
    ( N, TC, 1, 1, 4 ) 0.00030982773577890697, 0.9996901722642212;
    ( N, TC, 1, 1, 5 ) 0.0006192717364379488, 0.999380728263562;
    ( N, TC, 1, 1, 6 ) 0.5, 0.5;
    ( N, TI, 0, 0, 0 ) 0.999380728263562, 0.0006192717364379488;
    ( N, TI, 0, 0, 1 ) 0.5, 0.5;
    ( N, TI, 0, 0, 2 ) 0.0006192717364379488, 0.999380728263562;
    ( N, TI, 0, 0, 3 ) 0.5, 0.5;
    ( N, TI, 0, 0, 4 ) 0.5, 0.5;
    ( N, TI, 0, 0, 5 ) 0.5, 0.5;
    ( N, TI, 0, 0, 6 ) 0.5, 0.5;
    ( N, TI, 0, 1, 0 ) 0.5, 0.5;
    ( N, TI, 0, 1, 1 ) 0.0006192717364379488, 0.999380728263562;
    ( N, TI, 0, 1, 2 ) 0.0006192717364379488, 0.999380728263562;
    ( N, TI, 0, 1, 3 ) 0.5, 0.5;
    ( N, TI, 0, 1, 4 ) 0.5, 0.5;
    ( N, TI, 0, 1, 5 ) 0.0006192717364379488, 0.999380728263562;
    ( N, TI, 0, 1, 6 ) 0.5, 0.5;
    ( N, TI, 1, 0, 0 ) 7.74929481417191e-05, 0.9999225070518583;
    ( N, TI, 1, 0, 1 ) 0.0001549618793776731, 0.9998450381206223;
    ( N, TI, 1, 0, 2 ) 0.00020659449632261798, 0.9997934055036775;
    ( N, TI, 1, 0, 3 ) 0.00020659449632261798, 0.9997934055036775;
    ( N, TI, 1, 0, 4 ) 0.00030982773577890697, 0.9996901722642212;
    ( N, TI, 1, 0, 5 ) 0.00030982773577890697, 0.9996901722642212;
    ( N, TI, 1, 0, 6 ) 0.0006192717364379488, 0.999380728263562;
    ( N, TI, 1, 1, 0 ) 0.999380728263562, 0.0006192717364379488;
    ( N, TI, 1, 1, 1 ) 0.0001033185932140348, 0.999896681406786;
    ( N, TI, 1, 1, 2 ) 0.00020659449632261798, 0.9997934055036775;
    ( N, TI, 1, 1, 3 ) 0.00020659449632261798, 0.9997934055036775;
    ( N, TI, 1, 1, 4 ) 0.1667355457288094, 0.8332644542711907;
    ( N, TI, 1, 1, 5 ) 0.0001239771881973717, 0.9998760228118027;
    ( N, TI, 1, 1, 6 ) 0.0006192717364379488, 0.999380728263562;
    ( NAP, EPC, 0, 0, 0 ) 0.5, 0.5;
    ( NAP, EPC, 0, 0, 1 ) 0.5, 0.5;
    ( NAP, EPC, 0, 0, 2 ) 0.999380728263562, 0.0006192717364379488;
    ( NAP, EPC, 0, 0, 3 ) 0.5555479017992451, 0.444452098200755;
    ( NAP, EPC, 0, 0, 4 ) 0.7499225190603112, 0.2500774809396889;
    ( NAP, EPC, 0, 0, 5 ) 0.5, 0.5;
    ( NAP, EPC, 0, 0, 6 ) 0.0006192717364379488, 0.999380728263562;
    ( NAP, EPC, 0, 1, 0 ) 0.5, 0.5;
    ( NAP, EPC, 0, 1, 1 ) 0.5, 0.5;
    ( NAP, EPC, 0, 1, 2 ) 0.5, 0.5;
    ( NAP, EPC, 0, 1, 3 ) 0.3334021981654409, 0.6665978018345592;
    ( NAP, EPC, 0, 1, 4 ) 0.999380728263562, 0.0006192717364379488;
    ( NAP, EPC, 0, 1, 5 ) 0.5, 0.5;
    ( NAP, EPC, 0, 1, 6 ) 0.5, 0.5;
    ( NAP, EPC, 1, 0, 0 ) 0.00030982773577890697, 0.9996901722642212;
    ( NAP, EPC, 1, 0, 1 ) 0.3334021981654409, 0.6665978018345592;
    ( NAP, EPC, 1, 0, 2 ) 0.20007438631291846, 0.7999256136870816;
    ( NAP, EPC, 1, 0, 3 ) 0.7499225190603112, 0.2500774809396889;
    ( NAP, EPC, 1, 0, 4 ) 0.0006192717364379488, 0.999380728263562;
    ( NAP, EPC, 1, 0, 5 ) 0.5, 0.5;
    ( NAP, EPC, 1, 0, 6 ) 0.5, 0.5;
    ( NAP, EPC, 1, 1, 0 ) 0.0006192717364379488, 0.999380728263562;
    ( NAP, EPC, 1, 1, 1 ) 0.5, 0.5;
    ( NAP, EPC, 1, 1, 2 ) 0.2500774809396889, 0.7499225190603112;
    ( NAP, EPC, 1, 1, 3 ) 0.5, 0.5;
    ( NAP, EPC, 1, 1, 4 ) 0.5, 0.5;
    ( NAP, EPC, 1, 1, 5 ) 0.5, 0.5;
    ( NAP, EPC, 1, 1, 6 ) 0.0006192717364379488, 0.999380728263562;
    ( NAP, EPI, 0, 0, 0 ) 0.5, 0.5;
    ( NAP, EPI, 0, 0, 1 ) 0.5, 0.5;
    ( NAP, EPI, 0, 0, 2 ) 0.5, 0.5;
    ( NAP, EPI, 0, 0, 3 ) 0.6665978018345592, 0.3334021981654409;
    ( NAP, EPI, 0, 0, 4 ) 0.0006192717364379488, 0.999380728263562;
    ( NAP, EPI, 0, 0, 5 ) 0.5, 0.5;
    ( NAP, EPI, 0, 0, 6 ) 0.0006192717364379488, 0.999380728263562;
    ( NAP, EPI, 0, 1, 0 ) 0.5, 0.5;
    ( NAP, EPI, 0, 1, 1 ) 0.5, 0.5;
    ( NAP, EPI, 0, 1, 2 ) 0.999380728263562, 0.0006192717364379488;
    ( NAP, EPI, 0, 1, 3 ) 0.9996901722642212, 0.00030982773577890697;
    ( NAP, EPI, 0, 1, 4 ) 0.00030982773577890697, 0.9996901722642212;
    ( NAP, EPI, 0, 1, 5 ) 0.5, 0.5;
    ( NAP, EPI, 0, 1, 6 ) 0.5, 0.5;
    ( NAP, EPI, 1, 0, 0 ) 0.5, 0.5;
    ( NAP, EPI, 1, 0, 1 ) 0.0006192717364379488, 0.999380728263562;
    ( NAP, EPI, 1, 0, 2 ) 0.5, 0.5;
    ( NAP, EPI, 1, 0, 3 ) 0.5, 0.5;
    ( NAP, EPI, 1, 0, 4 ) 0.5, 0.5;
    ( NAP, EPI, 1, 0, 5 ) 0.5, 0.5;
    ( NAP, EPI, 1, 0, 6 ) 0.5, 0.5;
    ( NAP, EPI, 1, 1, 0 ) 0.5, 0.5;
    ( NAP, EPI, 1, 1, 1 ) 0.5, 0.5;
    ( NAP, EPI, 1, 1, 2 ) 0.9997934055036775, 0.00020659449632261798;
    ( NAP, EPI, 1, 1, 3 ) 0.3334021981654409, 0.6665978018345592;
    ( NAP, EPI, 1, 1, 4 ) 0.5, 0.5;
    ( NAP, EPI, 1, 1, 5 ) 0.5, 0.5;
    ( NAP, EPI, 1, 1, 6 ) 0.5, 0.5;
    ( NAP, N, 0, 0, 0 ) 0.00030982773577890697, 0.9996901722642212;
    ( NAP, N, 0, 0, 1 ) 0.5, 0.5;
    ( NAP, N, 0, 0, 2 ) 0.5, 0.5;
    ( NAP, N, 0, 0, 3 ) 0.0006192717364379488, 0.999380728263562;
    ( NAP, N, 0, 0, 4 ) 0.5, 0.5;
    ( NAP, N, 0, 0, 5 ) 0.5, 0.5;
    ( NAP, N, 0, 0, 6 ) 0.5, 0.5;
    ( NAP, N, 0, 1, 0 ) 0.5, 0.5;
    ( NAP, N, 0, 1, 1 ) 0.5, 0.5;
    ( NAP, N, 0, 1, 2 ) 0.5, 0.5;
    ( NAP, N, 0, 1, 3 ) 0.5, 0.5;
    ( NAP, N, 0, 1, 4 ) 0.5, 0.5;
    ( NAP, N, 0, 1, 5 ) 0.5, 0.5;
    ( NAP, N, 0, 1, 6 ) 0.5, 0.5;
    ( NAP, N, 1, 0, 0 ) 0.0001239771881973717, 0.9998760228118027;
    ( NAP, N, 1, 0, 1 ) 0.0001549618793776731, 0.9998450381206223;
    ( NAP, N, 1, 0, 2 ) 0.00030982773577890697, 0.9996901722642212;
    ( NAP, N, 1, 0, 3 ) 0.00030982773577890697, 0.9996901722642212;
    ( NAP, N, 1, 0, 4 ) 0.0006192717364379488, 0.999380728263562;
    ( NAP, N, 1, 0, 5 ) 0.5, 0.5;
    ( NAP, N, 1, 0, 6 ) 0.5, 0.5;
    ( NAP, N, 1, 1, 0 ) 0.0001033185932140348, 0.999896681406786;
    ( NAP, N, 1, 1, 1 ) 0.07146652967955645, 0.9285334703204435;
    ( NAP, N, 1, 1, 2 ) 0.3334021981654409, 0.6665978018345592;
    ( NAP, N, 1, 1, 3 ) 0.5, 0.5;
    ( NAP, N, 1, 1, 4 ) 0.0006192717364379488, 0.999380728263562;
    ( NAP, N, 1, 1, 5 ) 0.0006192717364379488, 0.999380728263562;
    ( NAP, N, 1, 1, 6 ) 0.5, 0.5;
    ( NAP, NAP, 0, 0, 0 ) 0.00030982773577890697, 0.9996901722642212;
    ( NAP, NAP, 0, 0, 1 ) 0.2500774809396889, 0.7499225190603112;
    ( NAP, NAP, 0, 0, 2 ) 0.8332644542711907, 0.1667355457288094;
    ( NAP, NAP, 0, 0, 3 ) 0.6666322271355953, 0.33336777286440467;
    ( NAP, NAP, 0, 0, 4 ) 0.7999256136870816, 0.20007438631291846;
    ( NAP, NAP, 0, 0, 5 ) 0.5, 0.5;
    ( NAP, NAP, 0, 0, 6 ) 0.5, 0.5;
    ( NAP, NAP, 0, 1, 0 ) 0.2500774809396889, 0.7499225190603112;
    ( NAP, NAP, 0, 1, 1 ) 0.3334021981654409, 0.6665978018345592;
    ( NAP, NAP, 0, 1, 2 ) 0.1667355457288094, 0.8332644542711907;
    ( NAP, NAP, 0, 1, 3 ) 0.6665978018345592, 0.3334021981654409;
    ( NAP, NAP, 0, 1, 4 ) 0.999380728263562, 0.0006192717364379488;
    ( NAP, NAP, 0, 1, 5 ) 0.5, 0.5;
    ( NAP, NAP, 0, 1, 6 ) 0.5, 0.5;
    ( NAP, NAP, 1, 0, 0 ) 0.04764575976947695, 0.952354240230523;
    ( NAP, NAP, 1, 0, 1 ) 0.08335486137662362, 0.9166451386233763;
    ( NAP, NAP, 1, 0, 2 ) 0.07694325476692387, 0.923056745233076;
    ( NAP, NAP, 1, 0, 3 ) 0.1666896295173668, 0.8333103704826332;
    ( NAP, NAP, 1, 0, 4 ) 0.2500774809396889, 0.7499225190603112;
    ( NAP, NAP, 1, 0, 5 ) 0.999380728263562, 0.0006192717364379488;
    ( NAP, NAP, 1, 0, 6 ) 0.5, 0.5;
    ( NAP, NAP, 1, 1, 0 ) 0.10002480004960007, 0.8999751999503999;
    ( NAP, NAP, 1, 1, 1 ) 0.11905886660092473, 0.8809411333990753;
    ( NAP, NAP, 1, 1, 2 ) 0.16667814848749973, 0.8333218515125003;
    ( NAP, NAP, 1, 1, 3 ) 0.0625339057922718, 0.9374660942077282;
    ( NAP, NAP, 1, 1, 4 ) 0.0001549618793776731, 0.9998450381206223;
    ( NAP, NAP, 1, 1, 5 ) 0.00030982773577890697, 0.9996901722642212;
    ( NAP, NAP, 1, 1, 6 ) 0.00030982773577890697, 0.9996901722642212;
    ( NAP, NS, 0, 0, 0 ) 0.0006192717364379488, 0.999380728263562;
    ( NAP, NS, 0, 0, 1 ) 0.5, 0.5;
    ( NAP, NS, 0, 0, 2 ) 0.0006192717364379488, 0.999380728263562;
    ( NAP, NS, 0, 0, 3 ) 0.5999752045623605, 0.40002479543763947;
    ( NAP, NS, 0, 0, 4 ) 0.9996901722642212, 0.00030982773577890697;
    ( NAP, NS, 0, 0, 5 ) 0.5, 0.5;
    ( NAP, NS, 0, 0, 6 ) 0.0006192717364379488, 0.999380728263562;
    ( NAP, NS, 0, 1, 0 ) 0.5, 0.5;
    ( NAP, NS, 0, 1, 1 ) 0.0006192717364379488, 0.999380728263562;
    ( NAP, NS, 0, 1, 2 ) 0.5, 0.5;
    ( NAP, NS, 0, 1, 3 ) 0.40002479543763947, 0.5999752045623605;
    ( NAP, NS, 0, 1, 4 ) 0.999380728263562, 0.0006192717364379488;
    ( NAP, NS, 0, 1, 5 ) 0.5, 0.5;
    ( NAP, NS, 0, 1, 6 ) 0.5, 0.5;
    ( NAP, NS, 1, 0, 0 ) 0.0006192717364379488, 0.999380728263562;
    ( NAP, NS, 1, 0, 1 ) 0.20007438631291846, 0.7999256136870816;
    ( NAP, NS, 1, 0, 2 ) 0.4285840802012115, 0.5714159197987885;
    ( NAP, NS, 1, 0, 3 ) 0.4285840802012115, 0.5714159197987885;
    ( NAP, NS, 1, 0, 4 ) 0.0006192717364379488, 0.999380728263562;
    ( NAP, NS, 1, 0, 5 ) 0.5, 0.5;
    ( NAP, NS, 1, 0, 6 ) 0.5, 0.5;
    ( NAP, NS, 1, 1, 0 ) 8.856140848064047e-05, 0.9999114385915194;
    ( NAP, NS, 1, 1, 1 ) 0.09095520436458733, 0.9090447956354127;
    ( NAP, NS, 1, 1, 2 ) 0.1250581197111063, 0.8749418802888937;
    ( NAP, NS, 1, 1, 3 ) 0.00030982773577890697, 0.9996901722642212;
    ( NAP, NS, 1, 1, 4 ) 0.0006192717364379488, 0.999380728263562;
    ( NAP, NS, 1, 1, 5 ) 0.5, 0.5;
    ( NAP, NS, 1, 1, 6 ) 0.00030982773577890697, 0.9996901722642212;
    ( NAP, P, 0, 0, 0 ) 0.5, 0.5;
    ( NAP, P, 0, 0, 1 ) 0.999380728263562, 0.0006192717364379488;
    ( NAP, P, 0, 0, 2 ) 0.999380728263562, 0.0006192717364379488;
    ( NAP, P, 0, 0, 3 ) 0.7499225190603112, 0.2500774809396889;
    ( NAP, P, 0, 0, 4 ) 0.6665978018345592, 0.3334021981654409;
    ( NAP, P, 0, 0, 5 ) 0.999380728263562, 0.0006192717364379488;
    ( NAP, P, 0, 0, 6 ) 0.5, 0.5;
    ( NAP, P, 0, 1, 0 ) 0.5, 0.5;
    ( NAP, P, 0, 1, 1 ) 0.0006192717364379488, 0.999380728263562;
    ( NAP, P, 0, 1, 2 ) 0.5, 0.5;
    ( NAP, P, 0, 1, 3 ) 0.00030982773577890697, 0.9996901722642212;
    ( NAP, P, 0, 1, 4 ) 0.999380728263562, 0.0006192717364379488;
    ( NAP, P, 0, 1, 5 ) 0.5, 0.5;
    ( NAP, P, 0, 1, 6 ) 0.5, 0.5;
    ( NAP, P, 1, 0, 0 ) 0.5, 0.5;
    ( NAP, P, 1, 0, 1 ) 0.5, 0.5;
    ( NAP, P, 1, 0, 2 ) 0.00020659449632261798, 0.9997934055036775;
    ( NAP, P, 1, 0, 3 ) 0.5, 0.5;
    ( NAP, P, 1, 0, 4 ) 0.0006192717364379488, 0.999380728263562;
    ( NAP, P, 1, 0, 5 ) 0.5, 0.5;
    ( NAP, P, 1, 0, 6 ) 0.5, 0.5;
    ( NAP, P, 1, 1, 0 ) 0.5, 0.5;
    ( NAP, P, 1, 1, 1 ) 0.5, 0.5;
    ( NAP, P, 1, 1, 2 ) 0.5, 0.5;
    ( NAP, P, 1, 1, 3 ) 0.5, 0.5;
    ( NAP, P, 1, 1, 4 ) 0.5, 0.5;
    ( NAP, P, 1, 1, 5 ) 0.0006192717364379488, 0.999380728263562;
    ( NAP, P, 1, 1, 6 ) 0.5, 0.5;
    ( NAP, PC, 0, 0, 0 ) 0.5, 0.5;
    ( NAP, PC, 0, 0, 1 ) 0.0006192717364379488, 0.999380728263562;
    ( NAP, PC, 0, 0, 2 ) 0.5, 0.5;
    ( NAP, PC, 0, 0, 3 ) 0.00030982773577890697, 0.9996901722642212;
    ( NAP, PC, 0, 0, 4 ) 0.5, 0.5;
    ( NAP, PC, 0, 0, 5 ) 0.5, 0.5;
    ( NAP, PC, 0, 0, 6 ) 0.5, 0.5;
    ( NAP, PC, 0, 1, 0 ) 0.5, 0.5;
    ( NAP, PC, 0, 1, 1 ) 0.00030982773577890697, 0.9996901722642212;
    ( NAP, PC, 0, 1, 2 ) 0.5, 0.5;
    ( NAP, PC, 0, 1, 3 ) 0.5, 0.5;
    ( NAP, PC, 0, 1, 4 ) 0.5, 0.5;
    ( NAP, PC, 0, 1, 5 ) 0.5, 0.5;
    ( NAP, PC, 0, 1, 6 ) 0.5, 0.5;
    ( NAP, PC, 1, 0, 0 ) 0.00030982773577890697, 0.9996901722642212;
    ( NAP, PC, 1, 0, 1 ) 6.199628022318661e-05, 0.9999380037197768;
    ( NAP, PC, 1, 0, 2 ) 0.37501937323703544, 0.6249806267629646;
    ( NAP, PC, 1, 0, 3 ) 0.0006192717364379488, 0.999380728263562;
    ( NAP, PC, 1, 0, 4 ) 0.00030982773577890697, 0.9996901722642212;
    ( NAP, PC, 1, 0, 5 ) 0.0006192717364379488, 0.999380728263562;
    ( NAP, PC, 1, 0, 6 ) 0.0006192717364379488, 0.999380728263562;
    ( NAP, PC, 1, 1, 0 ) 0.5, 0.5;
    ( NAP, PC, 1, 1, 1 ) 0.14292040100605763, 0.8570795989939424;
    ( NAP, PC, 1, 1, 2 ) 0.00030982773577890697, 0.9996901722642212;
    ( NAP, PC, 1, 1, 3 ) 0.00030982773577890697, 0.9996901722642212;
    ( NAP, PC, 1, 1, 4 ) 0.00030982773577890697, 0.9996901722642212;
    ( NAP, PC, 1, 1, 5 ) 0.5, 0.5;
    ( NAP, PC, 1, 1, 6 ) 0.5, 0.5;
    ( NAP, PI, 0, 0, 0 ) 0.5, 0.5;
    ( NAP, PI, 0, 0, 1 ) 0.5, 0.5;
    ( NAP, PI, 0, 0, 2 ) 0.00030982773577890697, 0.9996901722642212;
    ( NAP, PI, 0, 0, 3 ) 0.0006192717364379488, 0.999380728263562;
    ( NAP, PI, 0, 0, 4 ) 0.5, 0.5;
    ( NAP, PI, 0, 0, 5 ) 0.5, 0.5;
    ( NAP, PI, 0, 0, 6 ) 0.5, 0.5;
    ( NAP, PI, 0, 1, 0 ) 0.5, 0.5;
    ( NAP, PI, 0, 1, 1 ) 0.00030982773577890697, 0.9996901722642212;
    ( NAP, PI, 0, 1, 2 ) 0.5, 0.5;
    ( NAP, PI, 0, 1, 3 ) 0.0006192717364379488, 0.999380728263562;
    ( NAP, PI, 0, 1, 4 ) 0.5, 0.5;
    ( NAP, PI, 0, 1, 5 ) 0.5, 0.5;
    ( NAP, PI, 0, 1, 6 ) 0.5, 0.5;
    ( NAP, PI, 1, 0, 0 ) 0.0001549618793776731, 0.9998450381206223;
    ( NAP, PI, 1, 0, 1 ) 0.16670110975634958, 0.8332988902436504;
    ( NAP, PI, 1, 0, 2 ) 0.22226049100377482, 0.7777395089962251;
    ( NAP, PI, 1, 0, 3 ) 0.00020659449632261798, 0.9997934055036775;
    ( NAP, PI, 1, 0, 4 ) 0.5, 0.5;
    ( NAP, PI, 1, 0, 5 ) 0.0006192717364379488, 0.999380728263562;
    ( NAP, PI, 1, 0, 6 ) 0.0006192717364379488, 0.999380728263562;
    ( NAP, PI, 1, 1, 0 ) 0.0001239771881973717, 0.9998760228118027;
    ( NAP, PI, 1, 1, 1 ) 0.05266077558638873, 0.9473392244136112;
    ( NAP, PI, 1, 1, 2 ) 0.0667024882202199, 0.9332975117797802;
    ( NAP, PI, 1, 1, 3 ) 0.00030982773577890697, 0.9996901722642212;
    ( NAP, PI, 1, 1, 4 ) 0.0006192717364379488, 0.999380728263562;
    ( NAP, PI, 1, 1, 5 ) 0.5, 0.5;
    ( NAP, PI, 1, 1, 6 ) 0.5, 0.5;
    ( NAP, SBC, 0, 0, 0 ) 0.0006192717364379488, 0.999380728263562;
    ( NAP, SBC, 0, 0, 1 ) 0.0006192717364379488, 0.999380728263562;
    ( NAP, SBC, 0, 0, 2 ) 0.2500774809396889, 0.7499225190603112;
    ( NAP, SBC, 0, 0, 3 ) 0.0006192717364379488, 0.999380728263562;
    ( NAP, SBC, 0, 0, 4 ) 0.5, 0.5;
    ( NAP, SBC, 0, 0, 5 ) 0.5, 0.5;
    ( NAP, SBC, 0, 0, 6 ) 0.5, 0.5;
    ( NAP, SBC, 0, 1, 0 ) 0.5, 0.5;
    ( NAP, SBC, 0, 1, 1 ) 0.5, 0.5;
    ( NAP, SBC, 0, 1, 2 ) 0.00020659449632261798, 0.9997934055036775;
    ( NAP, SBC, 0, 1, 3 ) 0.9996901722642212, 0.00030982773577890697;
    ( NAP, SBC, 0, 1, 4 ) 0.5, 0.5;
    ( NAP, SBC, 0, 1, 5 ) 0.5, 0.5;
    ( NAP, SBC, 0, 1, 6 ) 0.5, 0.5;
    ( NAP, SBC, 1, 0, 0 ) 0.00030982773577890697, 0.9996901722642212;
    ( NAP, SBC, 1, 0, 1 ) 0.47059038060365577, 0.5294096193963442;
    ( NAP, SBC, 1, 0, 2 ) 0.16670110975634958, 0.8332988902436504;
    ( NAP, SBC, 1, 0, 3 ) 0.3636517347881958, 0.6363482652118042;
    ( NAP, SBC, 1, 0, 4 ) 0.0006192717364379488, 0.999380728263562;
    ( NAP, SBC, 1, 0, 5 ) 0.5, 0.5;
    ( NAP, SBC, 1, 0, 6 ) 0.5, 0.5;
    ( NAP, SBC, 1, 1, 0 ) 0.00020659449632261798, 0.9997934055036775;
    ( NAP, SBC, 1, 1, 1 ) 0.18185404783912346, 0.8181459521608765;
    ( NAP, SBC, 1, 1, 2 ) 0.15387917056141623, 0.8461208294385838;
    ( NAP, SBC, 1, 1, 3 ) 0.18185404783912346, 0.8181459521608765;
    ( NAP, SBC, 1, 1, 4 ) 0.0006192717364379488, 0.999380728263562;
    ( NAP, SBC, 1, 1, 5 ) 0.5, 0.5;
    ( NAP, SBC, 1, 1, 6 ) 0.0006192717364379488, 0.999380728263562;
    ( NAP, SBI, 0, 0, 0 ) 0.0006192717364379488, 0.999380728263562;
    ( NAP, SBI, 0, 0, 1 ) 0.0006192717364379488, 0.999380728263562;
    ( NAP, SBI, 0, 0, 2 ) 0.3334021981654409, 0.6665978018345592;
    ( NAP, SBI, 0, 0, 3 ) 0.0006192717364379488, 0.999380728263562;
    ( NAP, SBI, 0, 0, 4 ) 0.999380728263562, 0.0006192717364379488;
    ( NAP, SBI, 0, 0, 5 ) 0.5, 0.5;
    ( NAP, SBI, 0, 0, 6 ) 0.5, 0.5;
    ( NAP, SBI, 0, 1, 0 ) 0.5, 0.5;
    ( NAP, SBI, 0, 1, 1 ) 0.5, 0.5;
    ( NAP, SBI, 0, 1, 2 ) 0.5, 0.5;
    ( NAP, SBI, 0, 1, 3 ) 0.6665978018345592, 0.3334021981654409;
    ( NAP, SBI, 0, 1, 4 ) 0.5, 0.5;
    ( NAP, SBI, 0, 1, 5 ) 0.5, 0.5;
    ( NAP, SBI, 0, 1, 6 ) 0.0006192717364379488, 0.999380728263562;
    ( NAP, SBI, 1, 0, 0 ) 0.00020659449632261798, 0.9997934055036775;
    ( NAP, SBI, 1, 0, 1 ) 0.0006192717364379488, 0.999380728263562;
    ( NAP, SBI, 1, 0, 2 ) 0.18185404783912346, 0.8181459521608765;
    ( NAP, SBI, 1, 0, 3 ) 0.5, 0.5;
    ( NAP, SBI, 1, 0, 4 ) 0.5, 0.5;
    ( NAP, SBI, 1, 0, 5 ) 0.5, 0.5;
    ( NAP, SBI, 1, 0, 6 ) 0.0006192717364379488, 0.999380728263562;
    ( NAP, SBI, 1, 1, 0 ) 0.00030982773577890697, 0.9996901722642212;
    ( NAP, SBI, 1, 1, 1 ) 0.1667355457288094, 0.8332644542711907;
    ( NAP, SBI, 1, 1, 2 ) 0.3333562946022649, 0.6666437053977351;
    ( NAP, SBI, 1, 1, 3 ) 0.20007438631291846, 0.7999256136870816;
    ( NAP, SBI, 1, 1, 4 ) 0.00030982773577890697, 0.9996901722642212;
    ( NAP, SBI, 1, 1, 5 ) 0.0006192717364379488, 0.999380728263562;
    ( NAP, SBI, 1, 1, 6 ) 0.5, 0.5;
    ( NAP, TC, 0, 0, 0 ) 0.999380728263562, 0.0006192717364379488;
    ( NAP, TC, 0, 0, 1 ) 0.5, 0.5;
    ( NAP, TC, 0, 0, 2 ) 0.0006192717364379488, 0.999380728263562;
    ( NAP, TC, 0, 0, 3 ) 0.999380728263562, 0.0006192717364379488;
    ( NAP, TC, 0, 0, 4 ) 0.0006192717364379488, 0.999380728263562;
    ( NAP, TC, 0, 0, 5 ) 0.5, 0.5;
    ( NAP, TC, 0, 0, 6 ) 0.5, 0.5;
    ( NAP, TC, 0, 1, 0 ) 0.5, 0.5;
    ( NAP, TC, 0, 1, 1 ) 0.0006192717364379488, 0.999380728263562;
    ( NAP, TC, 0, 1, 2 ) 0.6665978018345592, 0.3334021981654409;
    ( NAP, TC, 0, 1, 3 ) 0.7499225190603112, 0.2500774809396889;
    ( NAP, TC, 0, 1, 4 ) 0.5, 0.5;
    ( NAP, TC, 0, 1, 5 ) 0.5, 0.5;
    ( NAP, TC, 0, 1, 6 ) 0.5, 0.5;
    ( NAP, TC, 1, 0, 0 ) 0.0006192717364379488, 0.999380728263562;
    ( NAP, TC, 1, 0, 1 ) 0.0001549618793776731, 0.9998450381206223;
    ( NAP, TC, 1, 0, 2 ) 0.4285840802012115, 0.5714159197987885;
    ( NAP, TC, 1, 0, 3 ) 0.6665978018345592, 0.3334021981654409;
    ( NAP, TC, 1, 0, 4 ) 0.3334021981654409, 0.6665978018345592;
    ( NAP, TC, 1, 0, 5 ) 0.5, 0.5;
    ( NAP, TC, 1, 0, 6 ) 0.5, 0.5;
    ( NAP, TC, 1, 1, 0 ) 0.5, 0.5;
    ( NAP, TC, 1, 1, 1 ) 0.0001549618793776731, 0.9998450381206223;
    ( NAP, TC, 1, 1, 2 ) 0.5, 0.5;
    ( NAP, TC, 1, 1, 3 ) 0.40002479543763947, 0.5999752045623605;
    ( NAP, TC, 1, 1, 4 ) 0.0006192717364379488, 0.999380728263562;
    ( NAP, TC, 1, 1, 5 ) 0.0006192717364379488, 0.999380728263562;
    ( NAP, TC, 1, 1, 6 ) 0.5, 0.5;
    ( NAP, TI, 0, 0, 0 ) 0.5, 0.5;
    ( NAP, TI, 0, 0, 1 ) 0.0006192717364379488, 0.999380728263562;
    ( NAP, TI, 0, 0, 2 ) 0.999380728263562, 0.0006192717364379488;
    ( NAP, TI, 0, 0, 3 ) 0.5, 0.5;
    ( NAP, TI, 0, 0, 4 ) 0.5, 0.5;
    ( NAP, TI, 0, 0, 5 ) 0.5, 0.5;
    ( NAP, TI, 0, 0, 6 ) 0.5, 0.5;
    ( NAP, TI, 0, 1, 0 ) 0.5, 0.5;
    ( NAP, TI, 0, 1, 1 ) 0.5, 0.5;
    ( NAP, TI, 0, 1, 2 ) 0.0006192717364379488, 0.999380728263562;
    ( NAP, TI, 0, 1, 3 ) 0.00030982773577890697, 0.9996901722642212;
    ( NAP, TI, 0, 1, 4 ) 0.0006192717364379488, 0.999380728263562;
    ( NAP, TI, 0, 1, 5 ) 0.5, 0.5;
    ( NAP, TI, 0, 1, 6 ) 0.5, 0.5;
    ( NAP, TI, 1, 0, 0 ) 0.5, 0.5;
    ( NAP, TI, 1, 0, 1 ) 0.0006192717364379488, 0.999380728263562;
    ( NAP, TI, 1, 0, 2 ) 0.0006192717364379488, 0.999380728263562;
    ( NAP, TI, 1, 0, 3 ) 0.999380728263562, 0.0006192717364379488;
    ( NAP, TI, 1, 0, 4 ) 0.0006192717364379488, 0.999380728263562;
    ( NAP, TI, 1, 0, 5 ) 0.5, 0.5;
    ( NAP, TI, 1, 0, 6 ) 0.999380728263562, 0.0006192717364379488;
    ( NAP, TI, 1, 1, 0 ) 0.5, 0.5;
    ( NAP, TI, 1, 1, 1 ) 0.9996901722642212, 0.00030982773577890697;
    ( NAP, TI, 1, 1, 2 ) 0.3334021981654409, 0.6665978018345592;
    ( NAP, TI, 1, 1, 3 ) 0.0006192717364379488, 0.999380728263562;
    ( NAP, TI, 1, 1, 4 ) 0.0006192717364379488, 0.999380728263562;
    ( NAP, TI, 1, 1, 5 ) 0.5, 0.5;
    ( NAP, TI, 1, 1, 6 ) 0.5, 0.5;
    ( NS, EPC, 0, 0, 0 ) 0.0001549618793776731, 0.9998450381206223;
    ( NS, EPC, 0, 0, 1 ) 0.5714159197987885, 0.4285840802012115;
    ( NS, EPC, 0, 0, 2 ) 0.5365842593320711, 0.4634157406679289;
    ( NS, EPC, 0, 0, 3 ) 0.6883086556145702, 0.31169134438542984;
    ( NS, EPC, 0, 0, 4 ) 0.7959108785107277, 0.20408912148927233;
    ( NS, EPC, 0, 0, 5 ) 0.8332988902436504, 0.16670110975634958;
    ( NS, EPC, 0, 0, 6 ) 0.6666322271355953, 0.33336777286440467;
    ( NS, EPC, 0, 1, 0 ) 0.9996901722642212, 0.00030982773577890697;
    ( NS, EPC, 0, 1, 1 ) 0.7999256136870816, 0.20007438631291846;
    ( NS, EPC, 0, 1, 2 ) 0.6499906999813999, 0.35000930001860003;
    ( NS, EPC, 0, 1, 3 ) 0.520832795118347, 0.479167204881653;
    ( NS, EPC, 0, 1, 4 ) 0.7599871038142949, 0.24001289618570504;
    ( NS, EPC, 0, 1, 5 ) 0.0006192717364379488, 0.999380728263562;
    ( NS, EPC, 0, 1, 6 ) 0.6666322271355953, 0.33336777286440467;
    ( NS, EPC, 1, 0, 0 ) 0.14292040100605763, 0.8570795989939424;
    ( NS, EPC, 1, 0, 1 ) 0.4848490541931896, 0.5151509458068104;
    ( NS, EPC, 1, 0, 2 ) 0.5352106526196656, 0.46478934738033445;
    ( NS, EPC, 1, 0, 3 ) 0.4603182414052382, 0.5396817585947619;
    ( NS, EPC, 1, 0, 4 ) 0.6499906999813999, 0.35000930001860003;
    ( NS, EPC, 1, 0, 5 ) 0.00030982773577890697, 0.9996901722642212;
    ( NS, EPC, 1, 0, 6 ) 0.0006192717364379488, 0.999380728263562;
    ( NS, EPC, 1, 1, 0 ) 0.1667355457288094, 0.8332644542711907;
    ( NS, EPC, 1, 1, 1 ) 0.360006944099995, 0.639993055900005;
    ( NS, EPC, 1, 1, 2 ) 0.3478301891878778, 0.6521698108121222;
    ( NS, EPC, 1, 1, 3 ) 0.44000297604285504, 0.559997023957145;
    ( NS, EPC, 1, 1, 4 ) 0.7142477593963654, 0.2857522406036346;
    ( NS, EPC, 1, 1, 5 ) 0.6665978018345592, 0.3334021981654409;
    ( NS, EPC, 1, 1, 6 ) 0.0006192717364379488, 0.999380728263562;
    ( NS, EPI, 0, 0, 0 ) 0.0006192717364379488, 0.999380728263562;
    ( NS, EPI, 0, 0, 1 ) 0.0006192717364379488, 0.999380728263562;
    ( NS, EPI, 0, 0, 2 ) 0.37501937323703544, 0.6249806267629646;
    ( NS, EPI, 0, 0, 3 ) 0.6666437053977351, 0.3333562946022649;
    ( NS, EPI, 0, 0, 4 ) 0.7142477593963654, 0.2857522406036346;
    ( NS, EPI, 0, 0, 5 ) 0.9996901722642212, 0.00030982773577890697;
    ( NS, EPI, 0, 0, 6 ) 0.5, 0.5;
    ( NS, EPI, 0, 1, 0 ) 0.5, 0.5;
    ( NS, EPI, 0, 1, 1 ) 0.5, 0.5;
    ( NS, EPI, 0, 1, 2 ) 0.1667355457288094, 0.8332644542711907;
    ( NS, EPI, 0, 1, 3 ) 0.6666437053977351, 0.3333562946022649;
    ( NS, EPI, 0, 1, 4 ) 0.5714159197987885, 0.4285840802012115;
    ( NS, EPI, 0, 1, 5 ) 0.5, 0.5;
    ( NS, EPI, 0, 1, 6 ) 0.5, 0.5;
    ( NS, EPI, 1, 0, 0 ) 0.0001549618793776731, 0.9998450381206223;
    ( NS, EPI, 1, 0, 1 ) 0.444452098200755, 0.5555479017992451;
    ( NS, EPI, 1, 0, 2 ) 0.7272471086863403, 0.2727528913136596;
    ( NS, EPI, 1, 0, 3 ) 0.47059038060365577, 0.5294096193963442;
    ( NS, EPI, 1, 0, 4 ) 0.999380728263562, 0.0006192717364379488;
    ( NS, EPI, 1, 0, 5 ) 0.5, 0.5;
    ( NS, EPI, 1, 0, 6 ) 0.0006192717364379488, 0.999380728263562;
    ( NS, EPI, 1, 1, 0 ) 0.0006192717364379488, 0.999380728263562;
    ( NS, EPI, 1, 1, 1 ) 0.9996901722642212, 0.00030982773577890697;
    ( NS, EPI, 1, 1, 2 ) 0.5833247225609126, 0.4166752774390874;
    ( NS, EPI, 1, 1, 3 ) 0.5999752045623605, 0.40002479543763947;
    ( NS, EPI, 1, 1, 4 ) 0.3334021981654409, 0.6665978018345592;
    ( NS, EPI, 1, 1, 5 ) 0.5, 0.5;
    ( NS, EPI, 1, 1, 6 ) 0.0006192717364379488, 0.999380728263562;
    ( NS, N, 0, 0, 0 ) 0.00030982773577890697, 0.9996901722642212;
    ( NS, N, 0, 0, 1 ) 0.00030982773577890697, 0.9996901722642212;
    ( NS, N, 0, 0, 2 ) 0.3334021981654409, 0.6665978018345592;
    ( NS, N, 0, 0, 3 ) 0.0006192717364379488, 0.999380728263562;
    ( NS, N, 0, 0, 4 ) 0.5, 0.5;
    ( NS, N, 0, 0, 5 ) 0.5, 0.5;
    ( NS, N, 0, 0, 6 ) 0.5, 0.5;
    ( NS, N, 0, 1, 0 ) 0.0006192717364379488, 0.999380728263562;
    ( NS, N, 0, 1, 1 ) 0.0001549618793776731, 0.9998450381206223;
    ( NS, N, 0, 1, 2 ) 0.00030982773577890697, 0.9996901722642212;
    ( NS, N, 0, 1, 3 ) 0.0006192717364379488, 0.999380728263562;
    ( NS, N, 0, 1, 4 ) 0.5, 0.5;
    ( NS, N, 0, 1, 5 ) 0.5, 0.5;
    ( NS, N, 0, 1, 6 ) 0.5, 0.5;
    ( NS, N, 1, 0, 0 ) 5.166463452437537e-05, 0.9999483353654757;
    ( NS, N, 1, 0, 1 ) 0.16670110975634958, 0.8332988902436504;
    ( NS, N, 1, 0, 2 ) 0.25003874647407087, 0.7499612535259291;
    ( NS, N, 1, 0, 3 ) 0.1250581197111063, 0.8749418802888937;
    ( NS, N, 1, 0, 4 ) 0.5, 0.5;
    ( NS, N, 1, 0, 5 ) 0.0006192717364379488, 0.999380728263562;
    ( NS, N, 1, 0, 6 ) 0.2500774809396889, 0.7499225190603112;
    ( NS, N, 1, 1, 0 ) 6.199628022318661e-05, 0.9999380037197768;
    ( NS, N, 1, 1, 1 ) 0.12502906210766154, 0.8749709378923385;
    ( NS, N, 1, 1, 2 ) 0.1667355457288094, 0.8332644542711907;
    ( NS, N, 1, 1, 3 ) 0.00020659449632261798, 0.9997934055036775;
    ( NS, N, 1, 1, 4 ) 0.00030982773577890697, 0.9996901722642212;
    ( NS, N, 1, 1, 5 ) 0.5, 0.5;
    ( NS, N, 1, 1, 6 ) 0.00030982773577890697, 0.9996901722642212;
    ( NS, NAP, 0, 0, 0 ) 0.999380728263562, 0.0006192717364379488;
    ( NS, NAP, 0, 0, 1 ) 0.0006192717364379488, 0.999380728263562;
    ( NS, NAP, 0, 0, 2 ) 0.7142477593963654, 0.2857522406036346;
    ( NS, NAP, 0, 0, 3 ) 0.6249806267629646, 0.37501937323703544;
    ( NS, NAP, 0, 0, 4 ) 0.7499225190603112, 0.2500774809396889;
    ( NS, NAP, 0, 0, 5 ) 0.0006192717364379488, 0.999380728263562;
    ( NS, NAP, 0, 0, 6 ) 0.5, 0.5;
    ( NS, NAP, 0, 1, 0 ) 0.5, 0.5;
    ( NS, NAP, 0, 1, 1 ) 0.5, 0.5;
    ( NS, NAP, 0, 1, 2 ) 0.5454494217372681, 0.45455057826273193;
    ( NS, NAP, 0, 1, 3 ) 0.999380728263562, 0.0006192717364379488;
    ( NS, NAP, 0, 1, 4 ) 0.6665978018345592, 0.3334021981654409;
    ( NS, NAP, 0, 1, 5 ) 0.0006192717364379488, 0.999380728263562;
    ( NS, NAP, 0, 1, 6 ) 0.5, 0.5;
    ( NS, NAP, 1, 0, 0 ) 0.2500774809396889, 0.7499225190603112;
    ( NS, NAP, 1, 0, 1 ) 0.2000371977681339, 0.7999628022318661;
    ( NS, NAP, 1, 0, 2 ) 0.6956416256024843, 0.3043583743975156;
    ( NS, NAP, 1, 0, 3 ) 0.9998450381206223, 0.0001549618793776731;
    ( NS, NAP, 1, 0, 4 ) 0.2500774809396889, 0.7499225190603112;
    ( NS, NAP, 1, 0, 5 ) 0.0006192717364379488, 0.999380728263562;
    ( NS, NAP, 1, 0, 6 ) 0.3334021981654409, 0.6665978018345592;
    ( NS, NAP, 1, 1, 0 ) 0.0006192717364379488, 0.999380728263562;
    ( NS, NAP, 1, 1, 1 ) 0.08337638719543698, 0.9166236128045631;
    ( NS, NAP, 1, 1, 2 ) 0.3333448147586834, 0.6666551852413166;
    ( NS, NAP, 1, 1, 3 ) 0.5999752045623605, 0.40002479543763947;
    ( NS, NAP, 1, 1, 4 ) 0.5, 0.5;
    ( NS, NAP, 1, 1, 5 ) 0.5, 0.5;
    ( NS, NAP, 1, 1, 6 ) 0.00020659449632261798, 0.9997934055036775;
    ( NS, NS, 0, 0, 0 ) 0.4102592637342372, 0.5897407362657628;
    ( NS, NS, 0, 0, 1 ) 0.3548406452593598, 0.6451593547406402;
    ( NS, NS, 0, 0, 2 ) 0.5107295566287477, 0.48927044337125225;
    ( NS, NS, 0, 0, 3 ) 0.5234655989198375, 0.4765344010801625;
    ( NS, NS, 0, 0, 4 ) 0.594285046166056, 0.4057149538339439;
    ( NS, NS, 0, 0, 5 ) 0.6610135649220448, 0.3389864350779553;
    ( NS, NS, 0, 0, 6 ) 0.6249935415870129, 0.3750064584129871;
    ( NS, NS, 0, 1, 0 ) 0.2857269388381733, 0.7142730611618268;
    ( NS, NS, 0, 1, 1 ) 0.4024404997746719, 0.5975595002253281;
    ( NS, NS, 0, 1, 2 ) 0.4619885797495783, 0.5380114202504217;
    ( NS, NS, 0, 1, 3 ) 0.5069124028943401, 0.49308759710565986;
    ( NS, NS, 0, 1, 4 ) 0.657405600042254, 0.3425943999577459;
    ( NS, NS, 0, 1, 5 ) 0.7249930247698174, 0.2750069752301826;
    ( NS, NS, 0, 1, 6 ) 0.9999311161932053, 6.88838067946987e-05;
    ( NS, NS, 1, 0, 0 ) 0.18965849006984992, 0.8103415099301501;
    ( NS, NS, 1, 0, 1 ) 0.32500060281428156, 0.6749993971857184;
    ( NS, NS, 1, 0, 2 ) 0.3890112915050707, 0.6109887084949294;
    ( NS, NS, 1, 0, 3 ) 0.40871965448194253, 0.5912803455180574;
    ( NS, NS, 1, 0, 4 ) 0.34615568056890345, 0.6538443194310966;
    ( NS, NS, 1, 0, 5 ) 0.1333636438786476, 0.8666363561213524;
    ( NS, NS, 1, 0, 6 ) 0.4285840802012115, 0.5714159197987885;
    ( NS, NS, 1, 1, 0 ) 0.07000533227514538, 0.9299946677248545;
    ( NS, NS, 1, 1, 1 ) 0.203540907471396, 0.796459092528604;
    ( NS, NS, 1, 1, 2 ) 0.2865175975705676, 0.7134824024294324;
    ( NS, NS, 1, 1, 3 ) 0.3280640838505207, 0.6719359161494793;
    ( NS, NS, 1, 1, 4 ) 0.2641564615982143, 0.7358435384017857;
    ( NS, NS, 1, 1, 5 ) 0.1666896295173668, 0.8333103704826332;
    ( NS, NS, 1, 1, 6 ) 0.0667024882202199, 0.9332975117797802;
    ( NS, P, 0, 0, 0 ) 0.5, 0.5;
    ( NS, P, 0, 0, 1 ) 0.0006192717364379488, 0.999380728263562;
