network unknown {
}
variable Educacion_Madre {
    type discrete [ 12 ] { EPC, EPI, N, NAP, NS, P, PC, PI, SBC, SBI, TC, TI };
}
variable Educacion_Padre {
    type discrete [ 12 ] { EPC, EPI, N, NAP, NS, P, PC, PI, SBC, SBI, TC, TI };
}
variable Personas_hogar {
    type discrete [ 3 ] { Alto, Medio, Poco };
}
variable Puntaje_obtenido {
    type discrete [ 2 ] { Aceptado, Rechazado };
}
variable cole_area_ubicacion {
    type discrete [ 2 ] { RURAL, URBANO };
}
variable cole_naturaleza {
    type discrete [ 2 ] { 0, 1 };
}
variable estu_genero {
    type discrete [ 2 ] { 0, 1 };
}
variable fami_estratovivienda {
    type discrete [ 7 ] { 0, 1, 2, 3, 4, 5, 6 };
}
probability ( Educacion_Madre ) {
    table 0.13181195866670908, 0.04621333624114217, 0.03004773652828829, 0.003673001752257717, 0.03480473003569639, 0.03290102394247386, 0.0941740081267199, 0.11284759295522734, 0.21298980298080697, 0.13532404651888336, 0.11332011189006061, 0.05189265036173445 ;
}
probability ( Educacion_Padre ) {
    table 0.10329725833003935, 0.03453212295790796, 0.046626790309121285, 0.021637808178515235, 0.09206130327385957, 0.025190787092357766, 0.09635486474902734, 0.140421798873527, 0.18745106324332758, 0.13922232773125792, 0.07748591151477154, 0.03571796374628763 ;
}
probability ( Personas_hogar | fami_estratovivienda ) {
    ( 0 ) 0.21579717175280766, 0.32121699888281297, 0.4629858293643794;
    ( 1 ) 0.17211451117275314, 0.3068408026897158, 0.5210446861375311;
    ( 2 ) 0.13324460308746142, 0.29422314778988085, 0.5725322491226577;
    ( 3 ) 0.10716026879431849, 0.282792506648912, 0.6100472245567695;
    ( 4 ) 0.09099440047425987, 0.2707720490106006, 0.6382335505151395;
    ( 5 ) 0.11151633033471106, 0.27762379447280977, 0.6108598751924791;
    ( 6 ) 0.1401333803692318, 0.3076987686673722, 0.552167850963396;

}
probability ( Puntaje_obtenido | cole_naturaleza, estu_genero ) {
    ( 0, 0 ) 0.24706259693227123, 0.7529374030677287;
    ( 0, 1 ) 0.22310242442286182, 0.7768975755771381;
    ( 1, 0 ) 0.11224537807218307, 0.887754621927817;
    ( 1, 1 ) 0.08273630105334084, 0.9172636989466592;

}
probability ( cole_area_ubicacion ) {
    table 0.20706097765985, 0.79293902234015 ;
}
probability ( cole_naturaleza | Personas_hogar, cole_area_ubicacion ) {
    ( Alto, RURAL ) 0.021925756562628067, 0.9780742434373719;
    ( Alto, URBANO ) 0.2210850476392744, 0.7789149523607256;
    ( Medio, RURAL ) 0.0559782925832993, 0.9440217074167008;
    ( Medio, URBANO ) 0.31114942339102175, 0.6888505766089783;
    ( Poco, RURAL ) 0.11823968315711303, 0.8817603168428869;
    ( Poco, URBANO ) 0.36891489953566003, 0.63108510046434;

}
probability ( estu_genero ) {
    table 0.477859761832283, 0.5221402381677169 ;
}
probability ( fami_estratovivienda | Educacion_Madre, Educacion_Padre ) {
    ( EPC, EPC ) 0.035481985071698016, 0.1440984741610208, 0.244991124026214, 0.27323141118943794, 0.17716616083932576, 0.08641104995580272, 0.038619794756500674;
    ( EPC, EPI ) 0.016465421455888234, 0.12320800969812429, 0.3000502081292915, 0.3483764545474183, 0.15188512295723247, 0.047266765326782215, 0.012748017885263098;
    ( EPC, N ) 0.047185480814668904, 0.2546986632729926, 0.36317146319438914, 0.23583382850405413, 0.07076652427584205, 0.014172019969026485, 0.014172019969026485;
    ( EPC, NAP ) 0.02975855708136912, 0.1421488009838081, 0.3223037507686001, 0.3735404796064766, 0.08595367903258862, 0.03471695019471202, 0.011577782332445169;
    ( EPC, NS ) 0.01914406416271448, 0.14165392104844374, 0.31125350417462516, 0.35451479738739833, 0.1278715621487992, 0.03560632618173435, 0.009955824896284786;
    ( EPC, P ) 0.009443447349954748, 0.04990103010303707, 0.19082827669294047, 0.33445269546638273, 0.25151465082256397, 0.11261028337031467, 0.05124961619480648;
    ( EPC, PC ) 0.030094197973952522, 0.2497455251733563, 0.37712323546707444, 0.2617812143349674, 0.0491507058131702, 0.026082301586748798, 0.006022819650730191;
    ( EPC, PI ) 0.0465143105350709, 0.283075486212929, 0.38010566335537244, 0.21250808465478827, 0.05453333343940508, 0.019249632660334717, 0.004013489142099791;
    ( EPC, SBC ) 0.032142911607933845, 0.1956474679581954, 0.31283571530569665, 0.2958663779555474, 0.11559212351807956, 0.032741829396762644, 0.015173574257784596;
    ( EPC, SBI ) 0.033667699334118506, 0.18719883846015226, 0.33703043206507677, 0.30040493140609525, 0.10765860975630344, 0.025528699187678163, 0.008510789790575627;
    ( EPC, TC ) 0.017474581169747885, 0.1683464767989525, 0.3460997792217793, 0.33131500548528714, 0.10786331151330254, 0.022178827358631772, 0.006722018452299004;
    ( EPC, TI ) 0.0210463221867579, 0.12825702099065725, 0.34568432604155586, 0.37373946217715565, 0.10320779229815738, 0.015034507300557942, 0.013030569005157954;
    ( EPI, EPC ) 0.02302003120758116, 0.13452700216930746, 0.28951146180877113, 0.3416844482220559, 0.1473144988392302, 0.048595024547426646, 0.015347533205627513;
    ( EPI, EPI ) 0.027992359007983664, 0.14503811976567121, 0.29261755724275545, 0.35304879241656156, 0.13549634579085973, 0.03308130512788312, 0.012725520648285289;
    ( EPI, N ) 0.13187232326754794, 0.2527053387530922, 0.20876606039471246, 0.13187232326754794, 0.13187232326754794, 0.10990268408835807, 0.03300894696119351;
    ( EPI, NAP ) 0.030144058125153108, 0.18071497284346, 0.34935439732796375, 0.3192402143843024, 0.09639526060120814, 0.018098384947688558, 0.006052711770224004;
    ( EPI, NS ) 0.02853951927617366, 0.19714411807468576, 0.3151673372336442, 0.3566700077071241, 0.0765269820111348, 0.022054727014692427, 0.0038973086825449723;
    ( EPI, P ) 0.022165160423526904, 0.06329988102824245, 0.22467455416981888, 0.37022818092496623, 0.19619667067424656, 0.0727925088600999, 0.05064304391909921;
    ( EPI, PC ) 0.04478628429296893, 0.21491790414994896, 0.3999733503101729, 0.23879602623513912, 0.053740580074915244, 0.035831988511022615, 0.011953866425832434;
    ( EPI, PI ) 0.04556047365850195, 0.2798161485444018, 0.35790137350636836, 0.24511160411686103, 0.04122240560505936, 0.02387013339128901, 0.006517861177518652;
    ( EPI, SBC ) 0.025890386469902483, 0.19796857178107508, 0.3609098622969642, 0.30050483559481217, 0.0781737289095803, 0.025382781203497844, 0.011169833744167952;
    ( EPI, SBI ) 0.030832263730970557, 0.20134679104955472, 0.36993460054532995, 0.28997581089876223, 0.07129333800995662, 0.022162033528330686, 0.014455162237095245;
    ( EPI, TC ) 0.02174328591131923, 0.17885251992146106, 0.35177148817161713, 0.34880716300161446, 0.08102978931137275, 0.012850310401311203, 0.004945443281304068;
    ( EPI, TI ) 0.04546153262814429, 0.1549578095825639, 0.33676294867669454, 0.3202352087590463, 0.0867808824222649, 0.04546153262814429, 0.010340085303141787;
    ( N, EPC ) 0.13433277589498457, 0.2685915555489781, 0.31334448210030935, 0.19400334463009283, 0.059744564976099215, 0.014991638424768023, 0.014991638424768023;
    ( N, EPI ) 0.16214406257533953, 0.3241541882081916, 0.21614743778629023, 0.16214406257533953, 0.0811389997589135, 0.027135624547962818, 0.027135624547962818;
    ( N, N ) 0.16953558146157421, 0.4502205567586975, 0.2402681952364493, 0.09468625471567468, 0.02208240777215212, 0.014223228463832666, 0.008983775591619699;
    ( N, NAP ) 0.1999694912668752, 0.3383571047212265, 0.2922279002364427, 0.10771108229730761, 0.015452673327740068, 0.030829074822667994, 0.015452673327740068;
    ( N, NS ) 0.06713174063250946, 0.4630126408701497, 0.3019763424683978, 0.1141006609996871, 0.026872666032071457, 0.020162820265331796, 0.006743128731852462;
    ( N, P ) 0.21410899837421363, 0.21410899837421363, 0.21410899837421363, 0.28536085389128435, 0.0716052873400721, 0.000353431823001343, 0.000353431823001343;
    ( N, PC ) 0.08464266667081297, 0.3839994153674399, 0.2821240820413627, 0.11912354871963911, 0.08620997949121416, 0.02665209231596901, 0.017248215393561885;
    ( N, PI ) 0.1255634011695619, 0.4453769683780359, 0.26632641490568604, 0.11092404774100502, 0.033785916213609, 0.013516042235607123, 0.0045072093564951805;
    ( N, SBC ) 0.12474566231258129, 0.37830638993644355, 0.2883332285215247, 0.1186111285797459, 0.044996723785721386, 0.02250343343199168, 0.02250343343199168;
    ( N, SBI ) 0.09029271746790346, 0.390104625243565, 0.2844890668225933, 0.1294726826885865, 0.05281622899594578, 0.03578146150869228, 0.01704321727271344;
    ( N, TC ) 0.0909364061115034, 0.3029460811561979, 0.2878025329387197, 0.19694124363385068, 0.07579285789402522, 0.015218665024112496, 0.03036221324159068;
    ( N, TI ) 0.1886492452159599, 0.2075048167754728, 0.15093810209693412, 0.1132269589779083, 0.15093810209693412, 0.15093810209693412, 0.037804672739856715;
    ( NAP, EPC ) 0.060057499752156254, 0.14000198275007436, 0.23993258649747204, 0.39982155249330825, 0.12001586200059484, 9.91375037176564e-05, 0.040071379002676724;
    ( NAP, EPI ) 0.0002605931099181738, 0.052796164069422, 0.2104028769479335, 0.5256163027049565, 0.15786730598842968, 0.0002605931099181738, 0.052796164069422;
    ( NAP, N ) 0.3093861367444715, 0.42833541809256337, 0.11906728658752451, 0.07148757404828776, 0.047697717778669387, 0.023907861509051005, 0.00011800523943263082;
    ( NAP, NAP ) 0.18358822549334902, 0.2851369520658083, 0.28904267231859515, 0.16796534448220146, 0.05469945715138153, 0.011736534370725697, 0.007830814117938803;
    ( NAP, NS ) 0.12329697496570181, 0.26021815020578926, 0.24652603268178053, 0.26021815020578926, 0.0685285048696668, 6.791724962305926e-05, 0.04114426982164931;
    ( NAP, P ) 0.00021534088462035403, 0.17386623024247383, 0.17386623024247383, 0.3475171196003274, 0.2172789525819372, 0.08704078556354711, 0.00021534088462035403;
    ( NAP, PC ) 0.046589363516909114, 0.46485626685723513, 0.23248576500149848, 0.11630051407363011, 0.09306346388805645, 0.02335231333133544, 0.02335231333133544;
    ( NAP, PI ) 0.11539683952249585, 0.4229522368705425, 0.33324857931069557, 0.08976722307682529, 0.012878373739813627, 0.012878373739813627, 0.012878373739813627;
    ( NAP, SBC ) 0.06318701393600919, 0.3052038206586983, 0.33677123023122296, 0.2631139412286654, 0.021097134505976306, 5.2194790959862204e-05, 0.010574664648468084;
    ( NAP, SBI ) 0.10347185421973026, 0.17239610933520236, 0.4308620660182226, 0.18962717311407037, 0.05177866288312622, 0.01731653532539018, 0.0345475991042582;
    ( NAP, TC ) 0.03780467273985672, 0.16979367365644704, 0.4337716754896276, 0.24521595989449863, 0.09437138741839542, 0.018949101180343816, 9.352962083091716e-05;
    ( NAP, TI ) 0.00027504263160789926, 0.22206942076021788, 0.33296660982452286, 0.22206942076021788, 0.1666208262280654, 0.00027504263160789926, 0.055723637163760394;
    ( NS, EPC ) 0.03100144188989527, 0.11419411948428564, 0.29036684850770056, 0.3474598625430665, 0.16476221762989546, 0.029370212917456243, 0.02284529702770014;
    ( NS, EPI ) 0.04880703763133069, 0.11382933260226256, 0.3007684306436917, 0.32515179125779115, 0.1463404800877285, 0.04880703763133069, 0.016295890145864748;
    ( NS, N ) 0.24506324683279695, 0.3332685146474026, 0.18625973495639322, 0.12745622307998952, 0.039250955265383906, 0.009849199327182041, 0.058852125890851814;
    ( NS, NAP ) 0.047645285454531144, 0.18252875010823108, 0.46816432231606625, 0.14285714285714285, 0.08731689270561936, 0.023842321103878218, 0.047645285454531144;
    ( NS, NS ) 0.06721934396309343, 0.21285863842974062, 0.2959071324316247, 0.27130919139294346, 0.1071605551546154, 0.03214901218517171, 0.013396126442810779;
    ( NS, P ) 0.06744515136996224, 0.03375043176930706, 0.22468717617301973, 0.31453976177476684, 0.2583818957736749, 0.10113987097061741, 5.571216865187695e-05;
    ( NS, PC ) 0.1082536160378757, 0.3401708702521128, 0.3556320205330619, 0.12886848307914123, 0.05156273167439553, 0.005179280831548108, 0.01033299759186449;
    ( NS, PI ) 0.09743994099019472, 0.38202998817260375, 0.3204970049980288, 0.15897292416476963, 0.028215334918797935, 0.00770434052727296, 0.005140466228332338;
    ( NS, SBC ) 0.04231526422853703, 0.20536411725381276, 0.3921479298966919, 0.2972080914262782, 0.05366676665434736, 0.006196847419140508, 0.0031009831211922354;
    ( NS, SBI ) 0.05674289020960446, 0.26594986870038884, 0.3545968934846195, 0.24644752324785807, 0.06028877120097369, 0.014192318313173753, 0.0017817348433814613;
    ( NS, TC ) 0.02650344390394514, 0.16556030362849852, 0.4502957783025841, 0.31123891857803065, 0.03974695435390261, 0.003327300616519572, 0.003327300616519572;
    ( NS, TI ) 0.012250426285811033, 0.1585299488457027, 0.39013919289886445, 0.36575927247221585, 0.06101026713910825, 0.012250426285811033, 6.04660724867277e-05;
    ( P, EPC ) 0.011860703878435137, 0.06390167424856831, 0.2042146703098134, 0.3781237358505116, 0.21080213491362776, 0.09486275788649565, 0.03623432291254814;
    ( P, EPI ) 0.019955177861367898, 0.07692959872033643, 0.17378611418058293, 0.44156589221773507, 0.21936565086775775, 0.051291109333800586, 0.01710645681841947;
    ( P, N ) 0.17945459628434188, 0.17945459628434188, 0.28192746588049916, 0.15383637888530255, 0.15383637888530255, 0.00012707449106666327, 0.05136350928914531;
    ( P, NAP ) 0.023834123474574767, 0.071443331227602, 0.27378246417796775, 0.35709857774576537, 0.16071059576452806, 0.08334563316585882, 0.029785274443703172;
    ( P, NS ) 0.021202743951971283, 0.08478230537073742, 0.26781437612173087, 0.38341357870130566, 0.15992178704746102, 0.05973581147849621, 0.023129397328297528;
    ( P, P ) 0.016067912463670477, 0.05905467208337516, 0.15762027242350607, 0.31263313287031996, 0.2557516630705087, 0.1276598035976513, 0.07121254349096841;
    ( P, PC ) 0.05149391422299686, 0.147057751070207, 0.33818542476462726, 0.35288755351035195, 0.09560030046017078, 0.0073875279858229455, 0.0073875279858229455;
    ( P, PI ) 0.0490997267842691, 0.2576442597314088, 0.33738187527002106, 0.23310960879645118, 0.09203536592044492, 0.012297750381832675, 0.018431413115572077;
    ( P, SBC ) 0.016690078755102197, 0.11790975108885521, 0.29365379755844834, 0.3881996453427231, 0.1379312247372899, 0.035599248311957155, 0.010016254205623977;
    ( P, SBI ) 0.02439936389650781, 0.09534733846116623, 0.3458823736426163, 0.34366524943747073, 0.13082132574349545, 0.03326786071709011, 0.026616488101653388;
    ( P, TC ) 0.003833321636739192, 0.08222199882781157, 0.27341389441579306, 0.41680781610677914, 0.15678683810712435, 0.04780745762197492, 0.01912867328377771;
    ( P, TI ) 0.01756929983816987, 0.08188372592124267, 0.23389964211759653, 0.4151493883517108, 0.16958521603452376, 0.05264989588348231, 0.029262831853274014;
    ( PC, EPC ) 0.05185965341987631, 0.26665605290551714, 0.3703508664503093, 0.2394978874533097, 0.04445288102381973, 0.022232563835649994, 0.0049500949115179734;
    ( PC, EPI ) 0.06624278291941171, 0.36418751601058824, 0.25163061684281046, 0.19204167022457513, 0.06624278291941171, 0.02651681850725484, 0.03313781257594765;
    ( PC, N ) 0.10501670368662845, 0.37068345561453014, 0.27820948296705994, 0.09012682673491713, 0.06818385017450047, 0.058779717362893336, 0.02899996345947073;
    ( PC, NAP ) 0.047329075541898365, 0.3564434820431141, 0.3942942256963242, 0.15457284922599362, 0.03155793235306083, 0.012632560526455781, 0.003169874613153259;
    ( PC, NS ) 0.062232324522782066, 0.3932509125081134, 0.35867978060364014, 0.1460673193911297, 0.029389749213532476, 0.006918513475624868, 0.003461400285177542;
    ( PC, P ) 0.057227806880928794, 0.3997451507857851, 0.2855727028174997, 0.19994336684128558, 0.028684694888857425, 0.028684694888857425, 0.00014158289678606824;
    ( PC, PC ) 0.09554861430641358, 0.3297129048050507, 0.3244650188510627, 0.15997093843123183, 0.06188975956704223, 0.019363787181277372, 0.009048976857921638;
    ( PC, PI ) 0.09371206746145959, 0.3546330434197876, 0.31686279259639893, 0.15087785249145322, 0.05451267201232111, 0.02123401858414626, 0.008167553434433433;
    ( PC, SBC ) 0.061251295949333866, 0.32719568370556035, 0.3487758965545143, 0.18152924697512127, 0.042209931670845094, 0.021899143107123733, 0.01713880203750154;
    ( PC, SBI ) 0.07253115913174761, 0.3498499549555563, 0.3334405587529641, 0.16704928125867885, 0.044635185587340816, 0.02133384297965984, 0.011160017334052657;
    ( PC, TC ) 0.04733192767026655, 0.2962853346342181, 0.38681384625747317, 0.1975269583179398, 0.02881473211096438, 0.024699799764452784, 0.018527401244685392;
    ( PC, TI ) 0.11511137911717376, 0.27336499452292345, 0.32371841760657105, 0.13669141758159417, 0.05037126372391253, 0.06475795603352613, 0.035984571414298915;
    ( PI, EPC ) 0.06616760459582159, 0.334580988510446, 0.34970286929436845, 0.17769147537725002, 0.04726525361591847, 0.007570316558121915, 0.01702149204807348;
    ( PI, EPI ) 0.06453075089455693, 0.2902950571396575, 0.33329778213872424, 0.2096649477664073, 0.043029388395023536, 0.04840472901990689, 0.010777344645723457;
    ( PI, N ) 0.10707576330269102, 0.40710965742166727, 0.2519849454559923, 0.15474823576043503, 0.05334964354872553, 0.017027759771396745, 0.008703994739092231;
    ( PI, NAP ) 0.04814723968994402, 0.46387057702451323, 0.34352961095398005, 0.11597578420242637, 0.0218910289109186, 0.004386888391568319, 0.002198870826649533;
    ( PI, NS ) 0.06932671971760267, 0.4239203931652542, 0.33987310378406344, 0.1325155577195198, 0.0214749783180926, 0.009205301036166944, 0.003683946259300397;
    ( PI, P ) 0.05005370569280345, 0.19996695034289022, 0.316566140626291, 0.24993803189291916, 0.10002478724283237, 0.08336776005948938, 8.262414277451872e-05;
    ( PI, PC ) 0.08120848448502367, 0.38199697934138244, 0.31339609454958134, 0.14922303692817693, 0.04690804208912311, 0.01905725552834914, 0.008210107078363494;
    ( PI, PI ) 0.12227597062363477, 0.3339608156974677, 0.2860166131682245, 0.1726939526445588, 0.05336354192681103, 0.019555222207172717, 0.01213388373213016;
    ( PI, SBC ) 0.0780082242163421, 0.37938339200595733, 0.3179805511673247, 0.1553883348650271, 0.04480056539544894, 0.015665543977118144, 0.00877338837278183;
    ( PI, SBI ) 0.08406109410397633, 0.3586365641823682, 0.30628107200640364, 0.17684666079360242, 0.04188583651778267, 0.022107095029084943, 0.010181677366781907;
    ( PI, TC ) 0.030658804167909826, 0.3256583385752103, 0.4176062454034598, 0.16666508301802888, 0.030658804167909826, 0.022996478598889036, 0.0057562460685922565;
    ( PI, TI ) 0.06786644229917635, 0.32497741564077587, 0.32140642989992035, 0.15357010007970953, 0.0642954565583208, 0.042869542113187505, 0.025014613408909755;
    ( SBC, EPC ) 0.040698611831716754, 0.20480915668298336, 0.3113092365139985, 0.3031169226808435, 0.105444317932458, 0.026428129670737047, 0.008193624687262983;
    ( SBC, EPI ) 0.032285810363088606, 0.20061337015791006, 0.37047816794172533, 0.3005338394425073, 0.06841090310444298, 0.01998790645113818, 0.007690002539187752;
    ( SBC, N ) 0.0921513724348318, 0.3733733760847264, 0.30579818588730023, 0.14744016441454408, 0.04914897867283335, 0.016385250092263107, 0.015702672413501227;
    ( SBC, NAP ) 0.030810899662410806, 0.2872564414117127, 0.409650904519334, 0.23063859453199667, 0.028313053476540985, 0.005832437803712574, 0.007497668594292457;
    ( SBC, NS ) 0.042590714296704565, 0.26833964622566053, 0.3668124627704614, 0.2535687237439404, 0.050960903703012636, 0.011325595043730284, 0.006401954216490241;
    ( SBC, P ) 0.017708728829740308, 0.14159301746292666, 0.285387281055018, 0.3738760586501511, 0.12168304250402172, 0.04867980098803689, 0.01107207051010532;
    ( SBC, PC ) 0.06386685441884882, 0.3195443345538076, 0.33626088396749304, 0.2051002654908839, 0.05743741233666209, 0.012002688289209232, 0.005787560943095398;
    ( SBC, PI ) 0.07334536822356898, 0.32195013614865653, 0.34041692339466867, 0.1972122147510653, 0.04564518735455081, 0.012718557264963175, 0.008711612862526584;
    ( SBC, SBC ) 0.0814999695473759, 0.25405819026390775, 0.28199383344581047, 0.22768826159662495, 0.10276072453537266, 0.03172672918787961, 0.02027229142302864;
    ( SBC, SBI ) 0.0717228791798517, 0.27454371363163227, 0.3217216033845464, 0.23324468864543638, 0.06819556031982074, 0.019547954375227005, 0.0110236004634855;
    ( SBC, TC ) 0.033602467996869424, 0.23808061275976952, 0.36731539526441137, 0.2808716851890843, 0.06289568536458826, 0.011488960768297364, 0.005745192656979947;
    ( SBC, TI ) 0.037516045731793686, 0.22004329223144958, 0.3723359641575429, 0.2872312357282555, 0.061591725484815785, 0.01232056692049149, 0.008961169745651197;
    ( SBI, EPC ) 0.04658644622090225, 0.2391278394933835, 0.322976510757206, 0.2841576814683993, 0.08074701599505216, 0.01397862961830462, 0.012425876446752353;
    ( SBI, EPI ) 0.05725758054775692, 0.24426808928737076, 0.34540642564654966, 0.25953425326611473, 0.04008314607166994, 0.03626660507698394, 0.017183900103553962;
    ( SBI, N ) 0.09572914271273254, 0.3813225632521209, 0.29825522486808825, 0.12104490298215202, 0.03481309456444194, 0.03639532958128066, 0.032439742039183865;
    ( SBI, NAP ) 0.030900629884427086, 0.33169665540240817, 0.4243743497511915, 0.17560790702550985, 0.02439693203538966, 0.00651176295053673, 0.00651176295053673;
    ( SBI, NS ) 0.05543656796735735, 0.30792302665469967, 0.36379052780507215, 0.22044058299287606, 0.03594790477536695, 0.010829183327912655, 0.005632206476715216;
    ( SBI, P ) 0.0625217923585337, 0.18748789313414793, 0.2577813248204309, 0.3202643752082381, 0.10938408014938904, 0.0547114110600578, 0.007849123269202457;
    ( SBI, PC ) 0.06786210458119407, 0.33666077282822937, 0.3504679175360006, 0.176850417061686, 0.035841279620618276, 0.02262167298551818, 0.009695835386753641;
    ( SBI, PI ) 0.09155661088955332, 0.3468445554881804, 0.3128325287872014, 0.17836637671356362, 0.04053857083808486, 0.018984437638045856, 0.010876919645370636;
    ( SBI, SBC ) 0.06442929492675767, 0.2880337410478066, 0.33044459241055596, 0.22270298277837985, 0.056488539777987574, 0.023642688935347628, 0.01425816012316478;
    ( SBI, SBI ) 0.09077583879036358, 0.294219028751697, 0.3015611386256296, 0.21345582013843797, 0.05700213337027343, 0.0313714952649086, 0.011614545058689866;
    ( SBI, TC ) 0.03722167689474979, 0.25982860849071393, 0.3763987997996416, 0.2717665196488571, 0.03371052655411944, 0.007728014033454855, 0.013345854578463413;
    ( SBI, TI ) 0.0676625316968858, 0.2638644091458855, 0.3531700912950853, 0.23138961563708554, 0.041953320169085845, 0.023009690622285875, 0.01895034143368588;
    ( TC, EPC ) 0.020118929663730627, 0.19250952521168246, 0.31661837407115945, 0.31259489518045325, 0.11544442953584762, 0.033117861464473854, 0.009595984872652778;
    ( TC, EPI ) 0.0106944499342985, 0.22837417945427746, 0.35276259632283685, 0.3187501385853401, 0.06608616682107886, 0.01360980345465536, 0.00972266542751288;
    ( TC, N ) 0.07474151290405709, 0.3238210552698186, 0.3060296593865499, 0.17081505067370795, 0.07118323372740334, 0.028483883607558526, 0.024925604430904788;
    ( TC, NAP ) 0.017189627930205162, 0.23367155794106262, 0.44671726684063656, 0.2525707740531216, 0.03780695459790587, 0.012035296263279986, 8.522373787905385e-06;
    ( TC, NS ) 0.026117784164270946, 0.2355160411572376, 0.38651070266237003, 0.2953441145837995, 0.046535301286034135, 0.0052254410629318715, 0.004750615083355984;
    ( TC, P ) 0.007930069243235279, 0.11683347247458625, 0.2772184845062123, 0.3841418258606296, 0.1445543387516574, 0.05149143053577567, 0.017830378627903553;
    ( TC, PC ) 0.028420870569644128, 0.309519364913433, 0.3840181462012678, 0.22503621087568226, 0.030724956588855514, 0.016132411800516746, 0.006148039050600748;
    ( TC, PI ) 0.03791943614622066, 0.3412524681796414, 0.3876578947220677, 0.18505859347586504, 0.03508983696680442, 0.006793845172642044, 0.006227925336758796;
    ( TC, SBC ) 0.03397941139407091, 0.2497029415401886, 0.34867500070063273, 0.2749892161360705, 0.06874803896340856, 0.016792646629682408, 0.007112744635946357;
    ( TC, SBI ) 0.02322546238995697, 0.275613179786675, 0.37465572111962253, 0.25682924953387465, 0.04918143873928115, 0.015028838279644068, 0.0054661101509456845;
    ( TC, TC ) 0.031970905172635726, 0.25264608426073887, 0.3334011592045508, 0.2785956584714754, 0.07805734897090373, 0.018061933395680962, 0.0072669105240145805;
    ( TC, TI ) 0.024045173114662706, 0.22539228714979623, 0.3673870802566628, 0.30878605453001945, 0.05710216198610254, 0.013527040291931853, 0.003760202670824629;
    ( TI, EPC ) 0.020816885539082907, 0.1734379961990233, 0.34092479945571114, 0.33795166093636164, 0.0991095332152861, 0.01685270084661692, 0.010906423807917948;
    ( TI, EPI ) 0.014161482545557486, 0.19339208800567115, 0.37733928834631414, 0.3230984472202271, 0.0684023236716445, 0.018878077426086794, 0.004728292784498874;
    ( TI, N ) 0.11429138209538925, 0.29711225097061245, 0.2171281208377023, 0.1485702950094936, 0.10857822994303852, 0.09715192563833706, 0.017167795505426933;
    ( TI, NAP ) 0.0245299440357471, 0.20587162743658435, 0.4166200703078276, 0.27448739953419843, 0.039233323770950124, 0.0245299440357471, 0.01472769087894509;
    ( TI, NS ) 0.026046947798894046, 0.23306883808524897, 0.4140502390274083, 0.268223498699913, 0.048181363741460294, 0.009120629725166916, 0.0013084829219082406;
    ( TI, P ) 0.014738592358685269, 0.09560030046017079, 0.29407903852745343, 0.37494074662893895, 0.1764620085616563, 0.03679178547727223, 0.007387527985822947;
    ( TI, PC ) 0.023430895035524375, 0.2954859466464096, 0.39277715715626255, 0.20359980338710396, 0.0540596094552929, 0.01622413870146119, 0.014422449617945395;
    ( TI, PI ) 0.03333786042007428, 0.3202307633258734, 0.3845138204085006, 0.21190190787181648, 0.03928999533513235, 0.008338893776830367, 0.002386758861772295;
    ( TI, SBC ) 0.033152571652641225, 0.2506361594437287, 0.35737433569630594, 0.2677579829381694, 0.06994627745984362, 0.015666454041297507, 0.005466218768013676;
    ( TI, SBI ) 0.03327058388053057, 0.2517914008874658, 0.38877459960823124, 0.25961901224293815, 0.04827350564518583, 0.014353856438139159, 0.003917041297509414;
    ( TI, TC ) 0.023726913347449623, 0.22357814319733157, 0.3925171324589225, 0.2767759525818325, 0.06326582572782195, 0.013662462923354848, 0.0064735697632871516;
    ( TI, TI ) 0.02498725941760274, 0.22425178171679575, 0.3424698775150938, 0.3241887286803054, 0.06520578685413711, 0.014627941744556007, 0.004268624071509277;

}
